-0.7338330041215111
-0.7338330041215111
-0.7338330041215111
-0.7338330041215111
-0.7338330041215111
-0.7338330041215111
-0.7338330041215111
-0.7338330041215111
-0.7338330041215111
-0.7338330041215111
-0.7338330041215111
-0.7338330041215111
-0.7338330041215111
-0.7338330041215111
-0.7338330041215111
-0.7338330041215111
-0.7338330041215111
-0.7338330041215111
-0.7338330041215111
-0.7338330041215111
-0.7338330041215111
-0.7338330041215111
-0.7338330041215111
-0.7338330041215111
-0.7338330041215111
-0.7338330041215111
-0.7338330041215111
-0.7338330041215111
-0.7338330041215111
-0.7338330041215111
-0.7338330041215111
-0.7338330041215111
-0.7338330041215111
-0.7338330041215111
-0.7338330041215111
-0.7338330041215111
-0.7338330041215111
-0.7338330041215111
-0.7338330041215111
-0.7338330041215111
-0.7338330041215111
-0.7338330041215111
-0.7338330041215111
-0.7338330041215111
-0.7338330041215111
-0.7338330041215111
-0.7338330041215111
-0.7338330041215111
-0.7338330041215111
-0.7338330041215111
---
-0.04267557303177093 -0.39796728165572787 0.147973861875356 -1.1350354942614373 0.962634962552617 1.6305605727320782 1.1563770016161472 0.9879905315858666 0.5444733661005133 1.1481193733541257 0.9137870624954675 -0.4538724479469781 0.6342313753831753 0.10052308933772058 1.0450563630482326 -0.00843080584093524 -0.9955668218389349 -0.2216623487156577 -0.6697587649009376 -0.32114597018872987 -0.8421841268181735 -0.3356568349710418 1.261158062397826 -0.4905792646974811 1.7511064601466664 -0.12014012312484734 -1.289355576434295 0.9324015783989317 -1.4215014023658974 -0.33157234296491556 -0.4832836837040135 -1.3304438938699752 -1.540698075735513 -0.9915471787005372 -0.8389724524959529 1.04027238904013 -1.06450878991935 -1.1621063007570356 0.7933842971039866 0.92651788911569 0.7525277851703104 -0.6012977077049543 -0.9638152800113716 -1.979437639362354 1.1666570456095067 -1.3884964711277876 -1.3138942316021305 -0.09172037587306778 0.2797842355584815 -0.6492200038713599 -0.2335884012886434 -0.01642443945349247 -2.5996426571034688 1.684540104829503 -1.7371462413626835 0.24952287167265821 -0.5528179290190872 0.4308483155428734 2.5947539097896124 -0.7990796189799165 -0.5534615590915725 -0.24833529855188788 -0.36733769633894153 1.6319663670515923 0.17647382520196137 0.5113973841757126 -0.7226715708181255 -1.289608502046802 -0.279608881353515 1.9006385090430933 2.2181612016053953 -1.8988430784593795 1.7698789568330384 0.9017780597499012 -0.361877086767434 2.036213786592955 0.31409108488915016 0.14469317510787705 -0.1628140110591732 2.088070695734294 0.1259004614036374 -0.7591695921091849 -0.17669079504123913 -0.5777431887747608 0.9189578800755888 -0.693357614297436 0.6256738451646623 -1.493985354159042 0.7888661991116265 -1.4732959927462361 0.31068624821837515 0.03202421893930071 -0.014656963261575631 0.05728122862657722 -1.3072500662809274 0.42118094693864117 1.1358299970947279 -1.1900504805920438 -0.12977494438913345 -0.3352057437910268 -1.4800529081942764 1.0529898806908031 -0.7967745749580855 -1.2092064595887932 -1.1730688976414807 0.5596668800555136 -2.069208934240611 2.1999017575764626 0.8923968670468678 -0.3196335502654452 1.1715110105842685 0.8614646433175923 -1.9294650217052287 0.5070185048517999 -1.0858146970589504 0.6997074229715212 0.13388837072038132 0.7461035166457822 -2.667268084199652 -1.5085671703812014 -0.5086219391644307 -0.7531149494339788 0.05398035553123111 -0.7638794089217213 -0.7449230524567008 -0.09367616442506961 -0.45614447423363846 -0.9007602268252208 1.088664105801281 0.2755866631211888 0.0542931693951023 0.6536373317661112 -2.3767523696209523 -0.10563024331938685 -0.1520328154376233 -0.6745192195588708 -2.586500925585411 -0.67887986576469 0.8647044344552121 -1.0654424261090074 -0.4491690413952654 0.9727770528109556 -1.2010224363671715 0.8864256316198967 -2.2309947365503096 -1.5030984965422365 1.114969216531447 -0.48429191876383865 -0.2594988982127521 0.5583263354379358 0.791043242771837 -0.5516990029330747 -1.4801506514727267 -0.35893687695790083 0.6456502261154712 -0.16300135978813393 -0.734703683893658 0.6260876287374656 -1.119525456186123 1.1918810303786602 0.41408006370968964 0.42612068944348774 0.7137150237305946 0.43914651737368826 -0.1515625308136301 -0.4344824418317493 -0.2852050483233105 -1.3552208456432233 -0.9032720728921131 -0.33815629847553197 -2.1598562370027055 -1.0735491929434242 -1.1219309097404835 -1.292313405496406 1.1994644296836952 -0.22447178873885054 -0.6293309777851609 -1.4586399570493396 1.2074870258214132 1.0617880569403026 0.24216285976913446 0.22925324995297464 0.2317633929893741 -0.4390426035605106 1.0366406300636817 1.6884370857996782 -0.7081231753899292 1.5700842862751232 -0.5552270539982542 -0.16460253725728446 0.855033022690602 3.3972812416744205 2.446510663356701 0.1870555539532593 1.6339229545760416 -0.10138817115655195 -1.2797858386286884 1.1124076377969787 -0.5727241145686279 -1.0661029651281564 0.7046372910029044 -0.08035058020682564 -1.1853433865588596 -1.934752350623065 -0.752836655067214 0.43826831261538557 1.9180424777988268 0.40448356096309035 0.4026933016299314 0.279114218758573 0.3958382300557211 -2.229415272953307 0.7902303685317629 0.5927300006703674 -0.20446602371534284 -0.4226737329929151 1.4194655897734791 -0.9244911868598105 -0.7222591545440394 0.1625283562966005 0.9671021391480596 0.12730338678649275 0.8099295111885653 0.2125882941306754 -0.27489189717633344 0.1861416228937816 0.24836085679598438 0.6885261265037764 -0.07021744696213371 -0.2553769782703901 0.4933085430454126 0.41363646381274943 1.0724844247963663 1.501728224582535 -1.540689369188052 0.9943614374360823 1.1490267757196484 -0.22857688456155825 -0.6120134480808136 0.5750421357992552 -0.30593708361409644 0.3653717435558025 -0.19482835850908808 -1.0222394472495875 2.2218752508404784 0.6698265239124647 0.20460832043302576 1.5246323556239465 1.269454079667081 0.29654222196443086 -1.747240549192226 0.9080883334743386 0.8640050639611232 0.4918459684395169 -0.8207542989263898 -0.49405978794280375 -0.8505567261764594 -0.9518374083335632 -0.7415125004641209 0.49649021159999623 -1.1550132869604708 -0.770357042190753 0.9936560731779823 0.9861368701814043 2.1446079521262984 0.007790410996067287 -0.5138822954132581 -2.1890477207295533 -1.3994875817132346 0.6053266825530452 -0.002516384876422983 0.01989584950855479 0.9694446720958497 2.112055898146937 0.4421599899602112 1.6958780182888773 0.33655744420133826 0.8463424384330582 0.3981521090506098 -0.511382336383675 0.18225602140490776 -0.9408775433592367 -0.42026792985662176 0.3035153145435918 -1.100858114434275 0.34678505373182794 0.2772000437251162 0.24138398158012947 0.7017077899955421 0.8020874827165718 0.31725981978216417 -0.3904104247692745 0.9509389740188268 0.8770382823328207 1.0671244257030883 -0.07287968016518027 -3.6569203231525513 -1.0204575281600736 -0.30018938797438893 -1.2093387333374752 -1.2275577932428328 -1.7172602233915233 -2.2389843734271206 1.777632220821713 1.0908550294143722 -0.31465743493822557 -0.6500730117395682 -0.007766011512424648 0.5176616806296526 0.06549387646662518 -1.044557702704667 -1.0555057698325798 -0.18486573075601714 1.6939420758607895 -1.2959598362705096 0.5790139840427527 0.6018065410219127 -1.406928809394573 -0.6909926727222837 2.815206849191631 -0.44985295358557553 0.06414481827803316 -0.057132735070875955 -0.24834955063122924 0.003490573556020364 -0.7660478655405579 -1.0645030558870914 -3.0149712738023617 -3.1777262501641848 0.06233223785117233 -0.3597804012575177 -0.4913761758957298 1.244134301443441 1.9600144877686068 -0.4270128872582014 -0.4704468003666129 -1.3903100803710788 0.4684428029257385 -0.7118775215160449 0.7539701629257832 -0.059306001764118585 0.13214915162448868 0.36905789409356554 0.6599765041553693 0.9210425615724868 1.8571143284517946 0.4910345787450149 -0.09645376668537323 -0.602897235912587 0.33276882195331764 -1.2747656598419486 0.3865572103775186 -0.5162678185519562 -0.7262517296743584 -0.8465037023791642 -0.5098033454882571 0.10836367285106568 -3.223179857354715 -1.1025513610389668 0.014326934052823738 0.33521070071474335 -0.4713220207482381 0.21162179468082049 2.078105904329952 1.2659959836971937 0.17109689587016774 0.3864606548924799 0.38444653522002686 -0.6468239441857162 0.2805950606751718 -0.07390515455302737 0.4632348618125032 0.5660302028835349 0.267325579558635 -0.6824319549074414 0.1590172126471714 0.19558223894074847 0.03801125619525526 -0.5262316622756413 0.1069844022532467 -0.5005756135394654 -1.7614709813350282 1.2020856281326742 0.5452935395749303 2.3119258503216797 -1.8635474308190965 -0.7085174887233013 0.6662343151078369 -0.1197016291157774 -0.2647167845273904 0.7323178532923963 0.42471642833210166 0.7259003182540196 0.18450656254233172 -0.796843423411468 0.26368858370535536 0.3360403464676808 0.0704372275009336 0.5249771404331645 0.6243750406836684 -1.8287154522257834 -1.018580953851495 -0.19566207598367114 1.0634392773120767 0.09609630963870415 0.162584531551684 0.008134690560725782 0.19130020733192643 0.4582147865027055 -0.1793329057013678 -0.3447846153172319 0.5370645322021051 0.20768179864368963 0.5409666318358846 -0.3638519178080904 -1.6729993684752078 -1.8920070725792615 -0.5159872600451332 -0.09660361822569893 -0.40592768757153086 1.1248600170006797 0.2665544444937603 -0.7932426800944268 0.1334162257055028 0.35387286425151493 -0.8065562437468644 0.32739069388801 -0.26495347570400174 -1.2445225808421163 1.4359141384130978 0.6738326241130738 -0.5143910353450606 -1.2314245579524796 -0.2874746700599894 -0.01833955002342552 -1.6881374651025105 -0.43615648358882814 1.2455093126072876 0.4763112832956234 1.5952775701268394 -0.17895785243043993 -0.2849301614888063 -0.25287034627065336 0.601785907336101 -0.1054289305635307 -0.26206535830854155 1.7660747319057115 -2.208740854098665 1.2739248007734285 0.05258665008158251 1.1735574190772686 -1.1177897160088093 -0.467395785571715 -1.3537798551739861 -0.0790797423685649 0.8372795932815758 -0.4891395686863325 -0.7406212286057926 0.41178016717384064 -1.282771858233537 0.5180968677876816 1.498602644187319 -0.18491566407055807 -0.53769257806252 0.5769678084593606 -0.85380800497092 -0.33558435200798703 0.16140241745142267 -0.8263422158915865 -0.4916047803766114 0.8563975967657961 -0.3423396655388654 0.04807019296362911 0.9008388568677703 0.006357416838112926 -0.4958370976064544 0.8784213858727387 -0.1470240496337465 0.8357041193321156 -0.046303354737546314 -0.6934237640474554 -0.16117567102014396 -1.8843125199085742 0.09911937040192918 -0.24621712220966793 -1.7313014405871032 -0.966755716367546 -0.0912036565161532 -1.030870559817449 -2.8993783369655883 -0.5666164560690221 -0.6158941781239644 0.7003373094382427 -0.36139066484191157 0.6600058662362215 -0.1082373960786387 -0.7772647691689969 -0.0869314997213258 1.5157486304712642 -0.36678035823057886 0.11888253964470595 -0.2795551510146931 -1.8368853064321793 -0.14943681598858863 -0.4195400979823161 -1.6123742092138806 0.5336584703561846 -0.2950937395617192 1.3646460056613845 -0.8781121373393208 -0.10403186142850566 -0.8480184592332436 -0.8065888310850838 -0.7675342900190327 -1.1645068992530454 -0.12334471563728445 0.010183533013413489 0.3228294084803778 -0.8182716945242738 0.8022417952628154 -1.8277660012586736 -1.1065145248768038 -0.536946875925597 -2.1468641117733474 -0.5453035593152881 0.06164028252149637 0.6269326567270375 -0.6877449763396656 2.036249949831022 0.5483956675469412 0.3317018162305383 -1.7282134786093817 -0.7319182518387353 0.3666136715253723 0.7497940436367416 1.5844092336977775 0.08929002063129417 -1.3261873954390089 -1.5532729020393365 -0.12319856040801207 2.31259445841416 -0.5894918951735238 0.6266671285348974 -2.565721405944553 1.0727338219324096 -0.5234153984891322 1.6596824459938169 -1.1466136973743868 -0.9002503702377005 0.5875225462551638 1.1969552610916017 0.09189688384271748 0.6304097890060041 -0.09552784167488677 -0.5228978413236728 0.14274383155726575 -0.14947727038002703 0.4628477566728239 0.33563227238026105 -0.31413421091676375 0.14454191884377995 0.23785632629900186 -1.4863298373926268 -0.17587304111926527 -1.3591181785242359 2.5638465070254437 1.7342750068838357 1.1046295391800456 1.0041104833084857 0.32049637840354916 1.199899852746145 0.5508580744048295 0.2668934954048558 -0.6987510631388124 0.7543590249071741 -0.5593372435740634 1.5006504300938188 1.6711662088496704 -0.7112420262654483 0.09488415138666689 2.73102031824792 -0.20279983096658868 -2.8479627049453073 0.3960978910595837 -0.8392975348908776 0.3886719003703993 -0.0006922515426147138 0.5510328200253979 -0.5602538157172249 -0.9088403613840469 -0.02489159703115741 -0.7889332160064848 0.6480514337810575 -0.3418003656471207 -0.31319847211160934 -0.10144986343312483 0.7684026926552542 1.0864031219718968 -0.2987821812382387 1.40381598011104 -0.7174172991106876 0.6918619979053234 -2.629052564147429 -0.5800300845072003 -1.790849965516398 -0.5762263679677008 -1.6826013455254538 0.5494545654707231 0.7192314273459606 -1.2605507246361132 0.23833967380066098 0.7873324469050619 -0.08325436381985082 0.47199476117068406 0.2995071973163658 -0.5553888090281667 -0.12468393316332883 0.16661015471872193 0.783114820374233 1.1080318886470533 -1.4521173368979845 -1.2061556032341754 0.8666124417618496 0.7716852723129763 -1.2884176310520399 0.06235439098647287 -1.1387444995005267 -0.7722244502078446 0.40100727504076183 -0.6859426043310075 0.4699934700271034 0.35365226804945893 0.027301049575926464 -0.7877007994632762 0.7048392270603716 -0.5463888219475771 0.41825622033506277 1.2714115980861425 0.22559590329816104 -0.4944995055208301 -1.369152595563718 -0.5356400714591584 -0.6760488703305984 -2.061710402848768 0.3287567983709875 0.9000256584465235 2.364949606751878 -0.41385243109672754 1.2026352939449243 0.19074361201876838 -0.3288183204447302 -0.36335521087891154 0.3500894634493403 -0.008663672718595479 0.9450464176417416 -0.41688283388095687 -0.2442473222063896 -0.14115844957545803 0.793696045619405 0.16051960601564164 -0.16690765250730816 -0.2520147116937603 0.6307234627567634 0.02466936679049372 -0.17038226708976195 -0.8435276111619648 1.1363738740041172 -0.3142698101086017 2.0908354480515614 0.05765813791613393 0.9996478970493976 1.3002815185047822 0.08096452519801028 -0.12598062996561996 -1.1251209793963353 -0.9504555071410776 0.3938381018860842 -0.31262300001171617 -1.3334570206240401 0.6636172436982627 -0.3925042866296055 1.317318082123789 0.21683933203833183 0.25383315023501185 -0.7599735954125129 0.8295441127921834 0.2726942296845624 1.110350651045651 -0.7157874198764362 -0.5314152165199185 0.6646468176710383 -0.9986535756351218 -1.1174163202620817 0.5395876193647232 -0.15959293956466195 1.7378591017064526 -1.0141026061140384 -0.1607821255536944 -0.4932328331717133 -0.08406109814318714 0.08050154424172182 1.032455390018444 -0.27373223836059657 0.40645690822367186 -1.295716095238899 -1.5111661539063965 -1.399941158162981 0.5693227129845974 2.094134805655724 0.7900585636726687 -1.9723105107774557 -0.9015838774289262 -0.14521865231110234 -0.1908697578074706 0.21890846017605853 -0.6609298493630933 -0.03061313442468879 1.034567763946957 0.9640722027927281 -1.1462476733608287 0.20828342236806824 -0.9679528137178143 -1.225867538143908 -0.9006268939191864 -1.1028392554895323 -0.7834622338301958 0.31837736746338335 0.6890913390212942 -0.28981418339123954 -1.4646226644427747 1.2556484467701636 1.152329384460524 -1.0582407657652582 -0.44324419815004434 0.7855718921943485 -0.4489885371758969 0.264591387323142 0.6810292996456294 0.004066518403090528 -1.0338452279261545 0.5744045486490837 -0.8947555789686907 1.329157541589385 -1.1672863218970573 -1.4347881277054457 1.0670156253268683 0.05440562575120721 -0.2093185253880236 -0.7545693037887592 0.6587842776766784 0.5492710045939387 1.8695036622168715 -1.9556935955647554 -0.4750840155493185 -0.9441772084613412 -0.7561290768851123 -0.842468736934624 0.23191536686245776 -0.11256357458268196 1.1813881896823337 1.6540348240305607 -0.5996237877772524 1.1712254020100683 0.2325315177861041 0.027047446225244336 -0.06914629853255184 -1.8049346124295746 0.5130186334981699 0.6811778089390202 -1.6135989544306266 -0.0019852875155001817 0.16914301288494232 -0.36486683453038526 -0.16148240311789958 0.8902081934086715 0.9478880679146293 1.041926401998485 -0.7159110284253757 -0.09405638341384047 0.08124367662074765 0.8256244830976509 -1.4945341413439264 0.768772003849761 -0.31884477742566053
-0.7493903169291231 1.4008219431053166 0.23037153279066105 -0.1387386066625802 -0.35892999952306387 0.3178355448149839 -2.003893067622137 0.33159873210426216 0.3894997237340085 1.6523832830447265 -2.1412772438538865 0.7581950135577029 0.07324837846791706 0.2935435170877578 -0.7865494007379834 -0.15246180657485253 0.827813161463884 -0.06238161798924294 -0.6437737218733569 1.351601400976736 0.9274309718952692 -0.1780209953599637 -0.015226876196200771 0.4980758707806225 0.5238344219160046 0.6824751872177416 -0.6486304431631867 -0.585046669350581 0.8843620845000378 0.6066287842599254 -2.0050608394181655 -0.5971482241644789 2.073691258437561 -0.1510630700523669 -0.1640535654598763 -1.0336970411725195 -1.4027252078034247 0.2765900225977893 1.3683046592411237 -0.5510954694908725 1.7028696449126244 0.44799780400749967 -0.7407801640309423 1.3702498265822243 -0.2694168657557512 0.14828047819444254 0.7834331411524386 -1.368239753687868 1.6631718022156463 1.6205236445040898 -0.6509311644782408 0.6718710930010808 -0.5175096406265013 -0.37886694037962104 -0.04379581338112558 1.2614399564298797 -0.44700132182559216 -0.3876394540315158 0.20292126918458878 0.8502653088716121 0.3607775549808919 -1.9566547082628025 -2.0436653999893113 0.011490983741717893 -1.275323600221399 -0.3531624547961398 0.8301680281232884 0.5031018601469084 0.38922226601929355 2.5351408715716564 -0.10859685197979081 -0.6657139776228508 1.3913475978455252 -0.8158072309658616 -1.6940548068711454 0.032772038278994234 0.3777058911697129 -1.4358375003512849 -0.3564944383816482 -1.3158914709249048 -0.147099078695515 0.09392218824384936 -0.44292386514683035 0.7408723843190433 1.0269506970759497 -0.9150335493794244 1.494029050933512 -0.4904059162020984 0.42586419524607905 -1.2182387913799961 -0.33459397076511105 -0.7493481643193141 -0.9269684521703624 1.7893062596260936 0.38680777774826836 0.31420430184380077 0.4250256675269438 -0.16745064810322335 2.4455772153479556 -0.418384250622443 0.8453442727738811 -0.039721173215160714 -0.05153891885907373 -0.017905543490782886 1.2403873694858798 -1.1952212004042895 -0.12720729790565463 -1.2258890792462285 0.21098651025412396 -0.3564489146796073 -0.37770645980022427 -0.572999672493 1.6816113921730917 -0.7030240014233384 2.069911683711233 0.056643517209954516 0.1249728621923666 1.031665011638652 1.9910961364356963 0.18824518690266714 1.5129434733669949 -0.7061323825595955 -0.36145189930020954 -1.1226877006604505 1.679354574448014 -0.7318864508336526 0.7146152179161351 0.6384586364801641 0.033434015589862635 -0.40087951343207046 -1.953910572745325 -0.7763549800594693 -0.2190105742205362 1.583937389401048 -0.7766515779502432 -0.7261396354870703 -1.8293410297345145 0.14288728458142946 -0.43785451677502973 1.4037084177169405 1.3921259043331187 0.42675714762177513 -0.35349451977055985 -1.6870903934807466 -1.892610333795359 -0.10208928339498885 0.3566282517230291 -0.011666121168842315 -0.006256503922341144 0.4823267884177374 1.1041245710160992 0.11599248349761872 1.269908538685122 1.1786454450870918 1.8990780048244915 -1.3530213793399501 -0.6084963909861937 -0.19090128162900025 0.9911568467724572 -0.505657921454869 0.08417228782275542 -0.08589412670553696 -1.587121252023942 -0.2877367978825934 -1.3059317233533168 1.0856459015407254 -0.5646123838760468 0.15269389650862314 0.1779479842446365 -1.557636402269374 -0.8734009448004257 1.7180617467837618 -0.40818991061032994 -0.08746066027781986 -0.10510227127909576 1.9565838075892144 -0.5547286052228398 -0.13313454983113995 -1.0493594631824992 -1.6320647119724456 1.1429139756268925 -0.11681532268346852 -0.6101510413861808 -1.7684747866272186 0.059759496011043224 -0.13135737478258366 0.6539505932697856 -0.3350982910012376 -1.5177793205297994 -0.8041416546573944 0.17603529387216604 1.290866996358139 -0.5173582609000564 0.07021823953328482 -0.4931893541252589 -1.5113527751417606 0.39845073138345366 -0.5970427603390089 0.0665679730334332 -0.288151159113649 0.5970621642829153 -1.3704255800198069 1.2164033986503453 -0.5335807467664554 0.4781491424713454 -1.0693148379047908 0.8745244753107249 -0.6634270250410584 -0.0789282065580089 0.6126242582597644 -0.37097583719473554 -0.5650024624971497 -1.193627074314552 0.3980206942496432 0.888694179598108 2.178418597761873 0.6985020997821516 1.7485523713462756 -1.0298106375100218 -0.8966343587330711 -0.006802765961134298 -1.4603129147269744 -1.1096114913135613 -0.1319914442027978 -0.6071451879405141 -0.28782686946175035 -0.11021170828589569 0.6596948076851259 -1.0883263248213693 -1.1604457938778594 0.7864873272334655 0.41099403959845177 -0.5308099348275945 1.1317187822654724 -1.8613775643253554 0.24857022008426902 -0.8416029540660601 -0.24863990353117207 0.7886858564005578 -0.9061778028271654 -0.7053477450428669 -1.1202505481896887 1.467531908349018 -0.19376808378496133 0.6306086981867958 -1.0738075497535333 -0.6831962928237408 0.5568535873181877 1.5965186846123287 1.146809861717761 0.5193067246694193 0.5713778649592167 0.9766188197277529 -0.5588161049816482 0.5010552187654825 1.049073809477225 -1.1218995367719018 -1.125619499873245 -1.7428688313339826 -0.4464164569386582 0.02146388726840831 0.6507862301576469 0.8996866745480975 1.5194174906807176 -0.6621523207775262 0.776047250691969 -0.25023741088431356 -0.24033756961995328 0.41732476405881413 1.0079732987523211 0.9621175632266374 -0.6711900458966709 -1.1932332671928183 -0.02098367195345316 0.8749206365696484 0.5198715161564961 -0.694407007376304 -1.2781045244412423 -0.43385129958417695 0.7632901758479056 -0.290685595968152 0.013278526063405897 0.21422430783034593 1.0697879673970914 -1.6522512905231606 0.2903893654996628 -0.7555811238323811 -0.8769421876104029 0.05219541322861041 1.309727089755258 -0.25582041440824277 -4.454946493511712 -0.3341381147681526 0.6795564396005851 -3.007806777361244 1.5539094338463402 -0.6576857890387873 0.1745198479673352 -1.3639492266740174 0.137675141924423 -1.6821496849848747 0.032169038966112985 1.0285139358059465 -1.9359823413037716 0.1625896290025259 0.43718399299518895 -1.2488874852115772 -0.05833614267297456 1.5804393304379374 1.7284164958216468 -0.03682012250958296 -0.9726915787550147 1.519696195019207 -0.28693073450216233 -1.0042823486073882 -1.1088603308442968 -0.8095538227415187 -0.7875380766986877 -1.0635773908971142 0.22117024758061726 0.9273527728874851 -2.174012349257787 1.0932537754951557 1.2799760012258725 -0.06061634340251391 -1.1297179269621067 0.8356818502376473 -1.0018011297907552 -0.5475441940414663 -1.8462845590729757 1.0255983778091322 -1.4356493913320632 -0.24595994018594805 -1.12001824368245 -0.5460451606887772 0.4770017937249712 -0.7620178327461776 -0.024528544852477602 0.4815805396072247 -0.6362244383131161 0.33915136159920795 0.20412026136628084 -0.9340370026443066 -1.4308783315378282 0.34173444929931635 -0.6709408558613968 -0.46333332010329853 -0.20938339558428262 -0.6753213675417753 1.4260236219870952 -0.2933740523423751 -0.6158751021566197 -0.4291478536648274 0.25214283878980764 0.39222428940870296 0.9564396314617993 0.3453017169325563 -2.4871246857467497 1.6111886938004005 1.2906226327146195 -1.823569777478733 1.139930640709244 -0.3916895822310379 -0.5487148473460436 0.8262356151944595 0.6502482314958028 0.186918244762022 1.3638617346344215 1.749295747300658 -0.6849167842698741 0.4505024902289869 -1.3258484997912936 0.35005323320928466 0.5564701648950207 -1.2703816089925508 1.9939360970112139 1.1513907520696032 -0.32335518496296617 -1.228484704168723 0.6214507576167737 0.48776813688344045 -1.0216619454375002 0.1562594276895075 0.3213070157421854 0.07877622681771232 -0.22058559949421666 -1.2848425757499435 0.8649432267064401 0.5980005942481987 0.7938067902814951 -0.017042789236080366 -0.6707853797364987 -0.6619329941508802 -0.7964696620880054 0.09792030895207098 0.4513534550552432 0.11225932545126546 -0.30526372599624985 -1.0602366494595772 1.1950664677375729 -1.0832973719160301 -1.6653127457187722 0.7182292447378995 0.4212329837754035 -0.8480304749154052 -1.598479727483587 -0.3714330156320251 -0.7846516422795985 0.38204194580202927 -1.4165552867275861 -1.149334449245074 -1.3865025759600607 -1.018886886628634 -1.8416049204275078 1.2066460047968868 0.17073501470762106 1.9885047807733367 -0.8393393934338967 -0.2738110227415944 0.1550081552817821 -1.6543287974116225 -0.6028291318363921 -0.8496519597232669 -0.09754191573351151 -0.8308573730967436 1.2605808318352798 1.8543498594597203 0.11743790685790563 -1.619339486660505 1.16650254351137 0.02282963134395612 -1.2158690420676257 1.541947370863162 1.2179502503153665 1.1492622710506908 0.014156448402167536 0.17677155132843778 -0.9827858928383681 -1.6917737795770837 0.22614363807334872 -0.2950605864623645 -0.07266277457056512 -0.5933919799301539 -1.7004256491196608 -1.0813025597080135 -0.21085258431785225 2.166476060331769 0.6345620897271098 -1.9167512733023342 -0.3467760964991978 2.0614082188450316 0.5341537923416103 0.4724163470324524 0.27313837740602614 0.05611257293788347 0.8166636403900305 0.8034999372467461 -0.003416237521391748 -1.7422792498956186 -1.20530725502907 1.634662069215171 0.7008702488990983 -0.6583958207097176 -0.7890708718539193 -1.1820379005953952 -0.2127195233489987 -0.7860364679065178 -2.2733333214978164 1.2639124879204777 -0.33625385556310894 0.7813492649745316 -1.343907857828284 -0.23779112114817827 -1.9149062312507348 0.47034114443240205 -1.2424148789795215 1.2297092749911376 -0.6112310181705043 1.4071570104947384 -0.5472401396547112 1.1823036891361296 0.059300128277328966 2.1157753981308205 -0.8770476684954006 1.6819142347835168 -0.17306828343445124 1.323315197470928 1.6979051551135638 0.9447586407893527 0.8285616437093746 -1.4845351773486484 -0.14568903391043544 -0.7259776972723978 0.06795758527861548 -0.31386363138668294 -1.2846391994357842 0.19335837445940024 -1.947361776706684 -1.4879922096806761 -0.17551319174347327 -0.04761559008117925 0.40103164761760784 -0.2840061856913571 -0.8715577181251124 -1.3900845477620205 0.2962253984447056 0.5814992606514123 -1.0144806345114716 0.5687632115712938 2.0015006791606273 0.5342308325606214 -1.023085027828329 -0.16506154166161754 0.2983124225539879 -0.673277037098298 -2.371403074565735 0.023406816759020132 -0.14728704719387672 0.6947175176923547 -0.9829496310714344 0.3098940338518491 -0.26225268652559264 -0.3004692972330838 -0.4994125904587202 -1.4897742898085031 -0.9914321372752486 -1.0978186340703935 -0.22488951390882253 -1.3606363168884805 0.21211909648524 -1.8847464813494652 0.2951896377357156 0.6206103527830477 2.5878903596084784 1.1117457252068943 -2.9808861782958984 1.1419348658490514 0.06152677700626329 -0.7656237474058607 -0.9642279745433114 1.0706774470819043 0.8345280992170319 1.9822473643798326 0.9132939360903432 -1.1541171164033541 0.984323151997494 -0.6339640942957624 -1.9266163666151874 -0.7516448681720126 -0.5828321408158338 -0.5696225628821617 1.1492149600739219 -1.0653488164851643 -0.21952888972728057 1.266087469218173 2.3063868741047577 -0.181505838878048 -0.5788204613552924 1.831451911712467 0.279281358232105 -0.6840150738216847 0.26980736600996286 0.6860387258244967 0.13191309745231639 -0.19624881361799676 1.591394023677236 0.25778842627989773 -0.8557849363813974 -0.1754404633037099 0.7463536949082702 1.3149999846719982 -1.3323670497300009 -0.46147888036143997 1.315640063051366 -1.4229404401979828 -0.833254158957408 0.04723679563728936 -0.14147256192650096 1.312771340270141 -0.2539160387694445 -1.0983684832431522 -2.0656899717335735 -0.3286692843760938 -1.3208831346598793 1.1501300154804601 0.6128896372674373 1.5091940176306415 0.530778914278736 -0.8015507284429108 0.2385798834552171 -1.3567272256573755 0.5446840353111413 -0.510662097257428 -1.964203810894365 -1.1326698705348757 0.669831696976136 -0.9233577724782811 1.9364650121522828 -0.5457581009594644 -0.060477997171316696 0.2973529163363536 0.9212625273195089 0.41191156281082814 0.5306097722436813 0.7365295595976776 2.1762191431995284 -0.38084674506862454 0.36974440757508215 0.8091901216506321 0.609716089848684 0.5018374004762894 2.166192124292753 0.5372137992828572 -1.1323723038976183 -0.3628061115268234 -0.5831988314380232 -1.0704418964481586 1.0005736278733424 1.513371796823941 -1.770251098614695 0.13030889361288886 0.4699494549118248 -0.3452451552691102 0.7230463419485453 2.0173369964093295 0.22280957117540226 -1.2273972514021723 0.4002685205684174 -1.561488073506649 -1.8314382540543899 0.7081606527673938 0.36503708442203847 -1.0430474880482212 -0.55723965262961 1.346415725178497 0.8282083544713109 -0.6430701710226452 0.5585313298769137 0.9800847068656457 0.6646221324809197 0.3757195736136293 0.521529294574365 0.14617994490833097 -1.1663749741148397 0.8593958957553602 -2.1200689418710867 -0.08790849792586955 -0.24184762025129825 -0.03232121710663873 -1.2894332327411577 -0.6820282009266116 -0.0057442901443774935 -0.3904221066134433 1.1794363121268618 -0.7924268858604274 -0.2330811377522019 -0.47943196578768427 0.33423151824387576 -0.16160217163193907 -1.193475946288841 -2.020223400183676 -0.16977959037711274 -1.097361547593734 0.06515261475187016 -1.7237382959329415 0.10936996946750834 1.5804176418082743 0.7331435019277746 -2.328972802283468 0.06013821204913666 0.0008477139393761235 0.7394684080423751 0.15661158383090482 -0.016482088771773946 0.8378433935343055 0.48557747009273056 1.2921008797887257 0.8418540737229733 -0.3540768201618643 -0.955203553830008 2.74536970888767 -1.2798174969366776 0.1193522914390268 -0.6227704458568106 -0.2703102810172238 1.5896134274216154 0.16525310574772312 0.721212911955139 1.7750297673971058 0.06734679848410026 -0.2779028533683616 -0.5656084068863368 -0.2674786125509609 1.8594225631078432 1.0265826552772028 -0.29909975013245915 0.9415420851418457 1.368182398089441 1.046036947040149 0.8794955453828931 -0.19764712699919434 2.2532489124967765 0.9402873147929999 -0.524841647389919 1.1674852000222136 -1.0696887658747698 0.8477568744235898 0.08804429146915124 -0.6018431393493703 0.619917548934489 -0.6892317305911836 -0.9184441642629352 1.5266717692541396 -0.8966769554040439 2.671537050418461 0.3754916962618739 -0.15676011140805318 -2.6712736659644563 0.32131444660182984 -0.8944711024408726 -1.3257037705561496 0.1855228455589726 0.8354734287764392 1.2312465303906122 0.6881808506261339 -0.9231074642159355 0.381640693585008 0.6814617964871509 0.264414938401759 -1.2881740758146105 0.02849717853033939 1.4705670280966765 -0.14953076154791564 -0.5606954547320685 -2.1655133886647455 -0.42652017562652345 -1.4188784849471674 2.276899525119549 -1.8881857942605256 -0.2652144483786792 0.8813125585863987 1.708908009602541 1.8754239946131024 -0.6324080022413296 0.6665184859328075 -0.6925393218915744 0.4061005441207443 0.3578979633311498 1.633146135047898 -0.43760357227853647 0.17925429593993733 -0.27247272460948446 -1.6397000026507953 0.4231299042518756 1.1036322326996808 1.2507333371757838 -0.809909586166696 -0.3649921762777707 -1.7023490757746618 0.42474403200304783 0.13282332970912064 1.4163518799747215 1.524246162443419 -0.2932378524749399 0.7927658828689029 1.1538516391312617 0.4111856795021111 -0.4195840746163832 0.20252792920248083 -0.1709546479400125 0.0654473195672694 -0.1617642561108033 0.40083250985804036 0.5923590922464128 -0.0014954522650204964 -0.7550746540056152 1.202171842256611 -0.6678912138964068 0.5815682812528755 -0.05838745519377001 0.7890956869377135 1.4937448071885004 -1.644728459887922 1.8888072396762094
-0.284539590321849 -1.515411411465474 0.2877389506507062 0.5725201282225172 0.49803754886571466 0.5949361361567046 -0.7477913883647862 -0.9802108331063231 -0.8637311224538283 -0.4602826543130464 1.1919544968967422 0.6242222335709339 0.09281702841943833 0.09370542213402541 0.6722108073284602 -0.7363368527560663 0.4326341177454605 -1.272317265121347 -1.379836791144269 -1.371758249951366 -0.33517909675921864 1.104408576734291 -1.2761102164589755 -0.4276358073606547 0.04107171843415797 -0.12454172450950682 -1.0917004371532775 1.2580527418398186 -0.5542560668602561 -1.4911035107118102 0.23432962444570982 0.21950304177323857 0.03796072630846508 -0.27368980246523616 0.17256775603031213 -0.17894337301795799 1.116730736470929 -0.21214184027007318 -1.4133443454573407 -0.7489470284347836 -0.8227065268771183 -0.7663375614516804 -1.2102851290968333 0.9646092101076509 0.5710597128511037 0.9852521695998046 -0.1111401277715004 -1.337403119229992 -0.5176262058935315 0.41147598697186777 0.04582515808127703 1.2252084248536537 0.6635745150882774 -0.3597123975786537 -1.9903176553373387 -1.4658507774693506 -0.44373105183713285 0.41982922239682796 -2.4532831685971384 -1.1684658526684693 0.42035911803940157 2.175328545956225 -0.7044824385239746 -0.09176538229157497 0.7435215475447611 -2.7093789365392733 -0.302304346808278 -0.4563399251114984 0.1876624287273002 -0.579515973612722 -0.8736683205856219 -0.2087640048871178 -0.06068373285368784 1.592512427716344 -1.122158147471221 -1.2418721721612351 -0.8090331987409607 1.5032747710574832 -0.7187416192728695 0.561152321808395 -0.8884450179477034 -1.6220533794880585 -2.2006643397699155 0.8010344018142241 -0.9854774633886134 0.5842037906952102 -0.4997889267027059 1.033932799188781 -0.990190910855712 0.5647727428218952 0.22220054401065373 1.5956836294704555 -0.459671000906787 1.2081781025442293 -1.2530835186827 0.8219851958550978 0.20717955909877864 0.4086733024231799 -0.025891562844966284 0.57585845694472 -1.8106490664329837 -0.05748519659159436 -0.3808404358671088 -0.4813489262517519 0.12279674223273718 0.8118501835847787 -1.1937465732547825 1.8597578517085933 -0.8654446992720016 1.2570388970691437 -0.2926317863214002 0.4063427187444796 1.2506283518153762 -0.17427397098236455 1.8264216922221241 -0.7772674747939537 2.1474537938570326 -0.6432037403841138 0.44058663506489654 -0.1334178732606045 -1.352673605632516 0.22739814928496332 -0.49439324985632793 -0.5693505008810161 -0.9655169269652428 1.114329733745164 1.131559279970856 -0.27521632109573707 -1.7231216836960173 -1.3304660935370791 -0.12565649862353054 0.00927340831191258 0.8700521427255881 0.5344032055578202 -0.9130962930753584 -1.7287991236940392 -0.6503205208654802 1.1724815372380668 1.8990339887353995 -0.7957016787069447 0.7488122829105242 -0.041932248548158864 -1.084055656618934 -0.2930073361065799 0.1841342270603689 -0.02396560618981045 -0.6681638541033506 0.1534329816433766 0.6917975205031883 -0.70695522006847 0.7759509317745731 1.2722616913535085 -0.6780661636423349 1.8052222451991582 -1.8578830055121363 0.6317173861656311 -3.1193804738227517 -0.32762865816748515 0.7354946106636077 -0.6114958981869895 1.2430641669730094 0.39594591554105557 0.12103029647435956 0.9635510252806394 -0.38399868631381046 -0.5229504902764291 0.24776315666992635 -2.0143715975365484 -0.08876712718085192 0.910444924545494 -2.289385615434107 0.3600265092791932 1.4123208013281596 -0.307192641403827 0.4836484449544001 0.2901697574194341 0.31466784182868446 -0.09464641492398983 1.3689104045294442 -0.7747438098911418 -0.20339304381738413 -0.07056301732067756 0.42614608568508916 -1.0397405125393226 -0.8095664297079198 -0.40429445468741415 -0.6346631925048132 1.3675786103232763 0.6587447273058794 -0.9963332705089386 0.7958855947470859 0.037419221850411945 0.723868505866299 -1.7628272211483218 -0.7701041799304715 -0.8844807975742138 0.30203030652145585 1.5871271018613715 1.9956019856111307 0.060836623866671005 -0.574543759776636 -0.40423001140809345 2.3225102125477712 -1.0708716194058197 0.3097084132901565 -1.4740793396131646 0.006886225903540474 -1.994316167380541 -0.757736513755296 -0.36641828365209 0.44046842582091117 -0.8137250416315566 2.4332246779366917 0.8879402390000587 -0.992333646296097 0.601376871359991 1.124681008742239 -1.0305036869414521 -0.14282477245185202 0.23541153003543697 0.4360259781953518 1.137596985144853 0.744538495628012 0.34229068563173903 -0.378252558589698 -0.5617237459015881 -1.466871636593539 1.7461728966311891 -0.08069409228350718 -0.6416308288047428 -0.01576421166299561 -0.47125562027640017 0.3742974219888983 0.05467325604303978 -2.9838823751191175 -1.0486019151222024 1.1218563626873492 0.675867719409573 0.07410332127264657 -1.0943036255607461 -1.9765597098272238 0.4329427700394653 -0.5846782924323668 0.5241408554927004 -0.3341094665550369 -0.5850217880351342 2.2417796293622363 -0.5810856936658267 1.319744599657116 1.453887310236979 -1.4293466467963065 1.2488280832887004 -0.5267081205094303 1.00780245107226 -1.551914536289369 1.7124050387840415 0.8700669177616777 0.8392685787981536 -1.009869666083335 -0.30979168485576586 1.1622347245830271 1.4493340075130317 -0.4918948736924242 0.9793650321125162 -0.577074673177539 -0.4257846779591947 -0.6488782869667746 0.6934816757761816 -1.3907109597154252 -1.935216096022695 -0.2917110921044772 0.30094395149164904 -1.2390489381735472 1.0178784284820732 -1.501824974463468 0.363546604771133 -0.7790812606277775 0.6417819223921449 1.26838463881117 0.6329595870927848 0.564464909296162 -0.7052667928053727 -1.8257581122377418 0.6646983074343893 0.8999558245043109 -0.5316734186879662 -0.9830168954335167 -0.04077139084827485 -0.23097577456419144 0.6945712660206946 0.974009104111232 -0.1049167032643962 -0.2981293556714541 -0.3633748611563906 -0.38035448908389313 -0.34673908834800793 0.17989104701673914 -0.7893125067575167 -1.405145423812146 1.8737733298486279 -2.698337125626474 -0.5654917519994413 -1.8302754017902185 -2.809977267231284 -0.2978725380308039 -1.3695690600602701 -0.7945632872322366 -1.663347055998007 1.139202091107683 -0.7301085609076498 -0.24033838568840868 -0.7936930756714173 -0.5973583230062975 0.3866847744704258 0.544087990283211 0.08768772749300317 0.9246483459815791 0.10107008475205749 0.14926725321489379 -0.4376312843166828 0.4472207823659088 0.14405993188472505 0.518392080027327 1.745803451253288 -0.3149970023970563 1.370860281766177 -0.49551203306594815 0.4843015876448969 -1.3954321421794604 -0.7139783531942092 0.7988480085883994 0.9448126153500694 0.7730609161480553 -0.15559106955105073 0.3286840001470413 -0.07940405791213981 -1.9698936444650514 1.2618078477602606 0.4886643482758469 -3.261762698729508 0.59864583510415 -1.1120199520975325 0.3780298994304807 0.4522074050158921 -0.4374105386075604 0.21276192770424476 -1.3776324634347263 0.7980701556754035 0.8400812353464555 0.07250480997352737 1.4927503141782448 -2.1533328065216453 0.49872114142314844 0.266795763219717 0.020054899465505698 0.04078019732421098 -0.35251006778337407 -1.2001267159342803 1.310038199731439 -0.5945932691310375 0.4978844552848253 1.4210922002145623 -0.8732573128613498 0.15504974634702876 -0.03533450333900566 -1.2217842586967476 -0.18976436367263416 0.047023342640179884 -0.970025723238694 0.8501646932619696 -0.5093696483398178 1.1486288576208874 0.06245843073201922 1.4448948910503494 0.23261518659913455 1.302271182442443 -0.9173070882430737 -0.3246248390206914 0.09534510430590808 0.16977767533423127 0.3506057314923139 0.07685030337079304 -0.4299792520062312 0.19514237522734995 1.1391493810005562 0.8232837862764747 0.14744156147867432 -1.2466197660999068 -0.8949186302837552 0.33388607723975366 -0.3238642999418534 -0.7729968785861077 -1.6021911994519524 -2.2599028030986195 0.1808274573376727 1.0373987516040908 -2.063194480321383 0.7302359456563448 0.07270103109632972 -0.04110421625060896 1.2504953620187353 1.1218918566361886 0.2083541051747453 2.6652645768119374 1.3546033139674194 -0.6052934258221107 -0.8319384468131428 0.7913864345441244 0.39383410751806786 0.7578987959887566 -0.06832513002427525 0.1750625726726837 -0.7911781844065013 0.6714995370335699 -0.18233463545971548 -0.6485071261357551 -0.7589261870161819 0.19592964144058375 0.6784349565171428 0.32505044931887617 -0.5222943135356346 0.06900844803167322 -0.3606491915993816 -1.3186816678162876 0.19616096341922637 -1.693040000822713 -0.5466343601311628 -0.13087452090897578 -1.0546246114691111 -0.2648465950100011 0.8644410690513388 1.9045120084632858 0.6370405131809402 -0.16862785170689426 0.8649141694038215 1.2195875785987669 0.6748695314328378 -0.21446520457179852 -0.9976661286250225 0.07594608382405045 2.8845816489765865 0.7719900196011933 0.851029976456036 -0.29058248454246355 -1.486663030709886 0.16084921572941172 -2.0604772476379574 0.9858079143623008 0.537188064230375 -1.6349875623310846 -0.5481859575172179 1.7057807870372006 -0.8345961684158966 0.11932982406569868 0.09399743251663001 0.2904018342187588 0.8387239449314138 0.016810226516196878 0.48658364924099223 -0.5157142835084172 -0.6904490589945126 -0.5184919051444946 -0.7314018027899583 -0.4477425871630264 0.30182691031113884 0.7239771188742202 -1.5867518125906805 1.1190185684768412 0.49818866968191083 -2.329976356507535 -1.6028816746726895 -0.208097447192386 0.45203917535359267 -1.3104862029929862 0.06548382459932783 0.8692532176245811 -0.9261288473840722 -0.4016817190744118 0.4244955887866784 0.060302223970719465 -1.0081077294464116 -0.15031567854577654 -1.0907211310327403 -0.19661538924912778 -0.6572261363591809 -1.3320068076268632 -0.2614823135194623 -1.8862397771720576 -0.45100221964083587 1.261710413080648 -1.3218517578574591 -0.3775415415669029 0.1664589744999428 0.11486288231013944 -0.9289559216391335 -1.0785704098824076 -1.2214005590053059 -0.4238127177524894 0.02597982768013421 0.4055294115344239 0.3968415913513689 1.3884521363415603 -0.5393668926389048 -0.19354834914053687 -0.42952675208219937 -0.8588702546745152 -1.33202363033648 1.2121191537596705 0.09893784057208918 -1.4974923856717144 1.0179382844829825 1.0236616987665483 -0.3886983178153819 -0.7962174890269109 -0.7383874697813879 -0.15750843443536236 -0.37792847051228307 -0.8259479781984063 -0.6162653092854196 0.536508516518481 0.49466169694593676 1.3938147455486318 -0.17551660827219 0.7094138853559713 -1.6656292225724192 0.8634043479516257 1.199824248153246 -1.5450007770602787 0.06943758550884606 0.38025135599912124 0.988226198661582 -0.11151392936295115 0.25431356968358415 0.3889216070689106 0.05081659476335962 -0.4522737930280406 -0.46342186492804277 0.37073448962570477 0.6146891277082678 0.5614205391237677 -0.9546057444993276 0.5428027179276954 -2.600025116180087 -2.304223037377319 -0.05882642554456321 -1.1288038404234861 -0.20915805123323006 0.4281848784088154 -0.0338642863992787 -0.7997691879274194 -0.37861424353757667 -0.865700069404483 -0.02245935675696704 -0.40246660771763537 -2.0109442227605316 -0.2764439299060466 -0.8369261655808851 0.5628253497147065 -1.0365909611449562 0.2526740037893071 0.8300679067153699 -0.11366234221927969 -1.166171687646764 0.09128359235948261 0.7175817979814616 1.6586684860429177 1.595339685258693 1.6515930341985343 2.6598881962096046 1.1190163689015682 -1.8037815762630307 0.4939722623466316 -1.4717664613220494 -0.4519232521085161 -1.7975743966341884 -0.5276490913411578 -0.22615513480610744 -1.80545910255604 0.6929867699933815 -0.7669132534019629 2.425329413821939 0.33996827500408683 2.764714217495028 1.1179246075189164 0.3462692315201774 -2.241833519798671 -1.6995682909790197 -0.18556147003384138 0.199384365197764 0.1020378301487298 0.6915626189265549 0.21554075213715268 -0.7339644255749292 -0.6527989211705387 0.5781924671113349 0.5196708130106266 -1.8216464834496227 1.5977431262483315 -0.09372455326228095 -0.4511028776474623 0.5225062061117011 0.159545441101166 1.2159123088140529 -0.2760293852212394 -0.7450765198375153 0.15768664693724146 -0.24018219907814853 -0.9188992404248606 -0.09833006298346354 0.3201478517183197 0.46093934047309043 2.5764863235906246 0.49232758950152145 0.6236024055886493 -2.1999346809297893 0.42731968143638505 0.13912009287877286 0.4886996670465271 0.6029168906943235 -1.50892859816351 -1.186446446941313 -0.09827425636565704 0.071561816985178 0.2671098846801531 1.1361349978549657 -1.1479183898500016 0.6463181342388846 0.7293288202225829 1.184048816262948 1.5651522054061502 -1.6496626831177277 1.0945177137936708 -0.103016929676569 0.07322732248399617 -0.46016621151479176 1.4815748524304118 -0.2651100349550649 -0.6930430753584649 -1.3493007334944815 0.3408652576372852 0.020745113069502184 -0.4981315491895462 0.42546041981192345 -0.9674195769414007 -0.4980838298421524 0.6718117703941774 0.8388584678489658 -0.15857441191108382 0.2012740864020715 0.7152926245670564 -0.5258932773495086 0.7994449299237208 -0.37748819701369296 1.725599301672628 0.6918487046503783 2.4443446967351594 0.4847163421410434 0.24277290068358157 -1.0431092600965919 0.27512866598815666 0.7318576430945474 1.0302687284606902 0.18211945646313374 -0.7084248542417111 -2.344932531030347 0.25665089137688835 -0.37872238539184144 -1.2850891705535858 -1.1270133441822998 -0.213577341938737 -0.21281355266886487 -0.93255614711662 -0.00929752453032308 -1.8648531762898535 1.4019561663156095 1.0190346878685868 -0.2157786026999578 -0.2532119179800098 0.6792087279578323 -0.12994480794824978 1.7594308402642782 0.34868515003707723 0.5618293146907625 1.6482768782265225 0.9711488942629305 0.7143352313652307 -1.7863393209977647 -0.8776403258929724 0.38309446507957845 -0.12388203942348043 0.6180788655296411 -0.7762280794718688 -0.7155449629421036 -1.6875133444107728 0.8051751789602815 0.9935766664982173 0.18517917624759567 0.711386303210274 -0.5374067333704058 1.1905619288817504 0.32392023831414274 0.7534455402741733 -0.7789938439724823 0.5420965243006486 0.3624798634945798 0.2154820609412236 1.0799582511728205 -1.4364798957794325 -0.5963771619153246 -1.3113595337745443 -0.48764152477624073 0.06817571121509798 -0.7585608930860998 1.2348254362667332 0.7695093343953774 -1.241432141854271 0.21144584846729053 -0.8235168082703096 0.31313500839143055 -0.18464941946807928 -0.31357088615523476 0.9974534331880331 1.033329483225971 -0.7484218489802137 -1.5991612016691226 -0.3876716850114857 0.26000710563058743 1.7828623563676445 1.4399466237423135 0.7476249823186434 2.368865474702406 0.7798356074697089 -1.6963917028733835 0.239382359760179 0.4907597976283236 1.5487603198717557 0.24175024482452065 0.19799192741115484 -0.3997044242062248 -0.2634891973338139 0.3671727057043386 -0.7271579344804064 -0.8033332978382878 -0.570383379227734 0.4121150821450369 0.31105121517333434 0.3635428975895172 -0.03189839980409309 0.19752841799251755 -0.34248799565008353 1.5204779460285207 -1.8478879121029885 0.17067187479248816 2.494339442630594 0.024141751620194666 -0.6769412347634797 -1.2471118736288103 -0.16063632236100872 -0.7732274097142463 0.12987586894058173 1.5713202705566582 0.3001138094458708 -0.5072499006058269 -0.6752758670206375 1.3143746872712265 0.8421034363813311 2.3955345052749495 -0.7371280511447511 0.3353766033303249 -0.7258360994976024 0.5636882279054689 0.19168694019712681 -0.012839314078689847 -0.6784028158963371 0.0323048472951033 0.15089766583661654 0.867723056828849 -1.681881377782529 -0.12152988357628913 -1.7334465512173962 0.801048081510517 1.5060534536779255 -1.575089043820094 0.8416067960334149
-0.557737006511689 0.435711311427202 1.012189737688501 0.24049184716989114 -0.5646763340181842 0.666983095711465 -2.7118398797047036 -0.7181946981766232 -0.8217706955600638 -1.7445689214778526 -0.085148041006874 0.06985836697335268 1.4532733824326558 -0.7637668364355482 0.6429940492418588 0.059484606068157156 -1.1826113068108852 -0.05863460174132563 -0.13301483923754195 1.3733949317704726 -1.494467360741439 1.921270139423683 -0.8591500850088041 2.1027117804388338 -1.154852336411918 -2.85886993706125 0.013457380466159864 -2.045163602648558 0.29924427097800455 -0.5892651130939988 -1.3604082514071492 1.5912784566412768 -0.8581744721409054 0.04657384648373262 0.7232887879844575 0.1194260266011915 0.2883900754873213 -0.9037645431494482 0.8759614583209703 0.453250518751528 1.0250195262113055 -0.042252784630378876 -0.3920097868724489 0.5194261621152629 -0.879020385721057 -0.469642216900334 0.861426580975161 -0.6867497569046777 -1.4352280940750652 0.46887281599252434 -0.18879649730749623 -0.48213010486270685 -0.23511373305767364 1.1448707391309074 0.4552754727159341 -0.8361102781972723 -0.5199925188629231 0.006499039705085809 2.0810643271023976 -1.0579750233008505 0.27753466438493046 -0.4767899275823475 -0.13353249731487848 1.6330274450232567 -1.5599887969098347 -0.05860322969414292 -0.3321676601120844 -0.7340198217027183 -0.9356387110852552 0.18275386029090973 -0.23644108940900666 0.006916693853912008 1.2580599864012902 2.0170711220008872 1.0351247480477497 -0.5188666925153154 1.0276822980953546 0.08883569568910946 -0.7914696760529193 -1.169082536022132 0.3160938542435497 0.8245387899918848 -0.5899010091829576 0.021897301721123134 -1.1070501954190808 1.5347335959182131 -0.44578957734803654 -1.7414823714959289 1.9185643676883857 -0.9549972302066844 -0.02675988515162283 -0.9322246565311382 0.5808891820730862 2.0934185626542017 1.2761967027192795 -0.7944953468497753 -0.3118447950315271 -0.9750860901167553 1.4759775035533798 -0.08965661872201008 -0.856693557350233 -0.6491852965265705 1.1100804040170613 -0.7354921731855738 -1.4274370550897433 0.32949837837638163 0.9883341519124702 -1.7744306926640954 0.6233057457153489 0.3858849583775237 -0.9702475987758222 1.3159026143295536 -0.5203225989829512 -0.728944637641442 0.18125104256314573 -1.0202740691728402 -0.3339967386590779 -1.0917122138359638 -1.106197991756132 -0.8058670120556601 -0.7081170179040494 0.5526291783652145 -0.3122296199758528 -0.49584984426332457 -0.5777124527133326 -1.5771150647429846 0.968796292388003 -0.11177286777185591 -0.38105437787375956 -0.4425451488294925 1.5756588177362805 1.141620652048144 -0.22908549130314518 -0.31986793303006694 -2.098751452778644 -1.958594071415616 -0.8308378853358654 2.1491580552189222 -1.2055517855314724 -0.39426940735423605 -1.1118290518876572 1.8231954181190413 1.1054347993051945 -1.672366298302157 0.06679989134953233 -0.18282084390458225 -0.06378693694516638 1.4947003423800185 0.8818243822401161 0.4050153917189576 0.4452603602116091 0.318203567662298 -2.174657097357125 -0.36768749637863796 1.3207058982156004 -1.0318576965608837 -0.49358609601627396 0.01545258755065975 0.3740885937301882 -0.5538580294886174 -0.5700227480370625 -2.1137566582900735 -1.5512920782132171 1.1269227740598002 -1.5492706064403465 -1.0794666299356979 1.9678818248642038 0.7736679482634563 -0.5030230028197467 -0.25675290763630254 0.0794746489846666 0.519421395492758 0.49680077004633655 -0.3899751089687053 2.35943854599791 -0.3092771408390245 -0.038010080967055465 0.6555970420114969 0.9587818175545385 2.379307100173101 0.3909971400420009 1.5987699695430384 0.04037222542620882 -0.35885100155447297 -0.4776719859242031 0.6822918723402225 1.4303327838851714 -1.988355115329706 0.9493735205674229 1.05268130213611 -1.3391231240249684 -2.1186584273506854 0.7396348949493843 -0.27335931673851704 0.24296162008345468 1.5358222823776135 0.2252858094710259 0.36140367190348355 -0.3755883561202296 -0.4771988755969234 -0.5079126888029063 1.1771814511311205 -1.159042410313121 -1.3975441794362111 0.9849623454533772 0.07062722010116064 -0.6319375316033841 -0.7192107985537485 0.46802487170956325 1.8260557024808282 2.302443463390823 -0.08406703658924988 -1.4530976198809378 -1.643725283622401 -0.47051324175201237 0.15858476928179083 1.3240157832839758 2.109783560847035 -0.018447125286627904 1.8164088221575605 -1.6372662159080327 0.3664331430795632 -1.4154369359420647 -1.5496462930224462 0.7791058762866143 0.5619338535593966 0.8530636356447803 -1.7625943247998357 0.6135649565861748 -0.37161697340878513 0.515460624072793 -0.012708054270755552 -0.7767031477264443 -0.7542948804584121 -1.0740422414753334 -0.4702896374991765 0.07148622711644244 2.405596994348092 2.423315322006603 0.08894257466243094 0.14205728310843202 0.24713182946072126 -0.5318617747847999 -2.090666868100417 -0.5230436053858908 -0.8040723759991245 -1.3314287486433465 0.6506414422847557 -0.5063544857603933 0.7304716455830594 1.487041235660281 0.7488154159906035 -0.45755330770343877 -0.5538446903485695 -1.819927930205791 0.005771798681131722 -0.8720563046767714 -0.6835794933304734 0.6142631983850015 -2.1896783499507255 0.18679639219455532 -0.5869663342398119 0.6564436976294411 -0.15143838643816132 0.6240958608649249 1.582333776893599 -0.48109014677562134 0.822214782418541 -1.0589828214570678 0.2952117711084243 -0.7121845095092506 -1.310169473050958 -0.9526401045754487 -1.4969945257814572 0.7572520493880883 0.1629878690931328 0.8768041818338289 0.11636031770597541 0.07018562554477255 0.3199220139178151 -0.011189008110324902 0.12790060287683241 -1.5516626454093525 0.8387343674709764 -1.165401168416664 -0.6392867629112579 0.6957100736615248 1.7033148663202098 -1.0998661184645973 2.0743828029029885 0.5970450801343106 -0.4243404162844007 0.9885342827014236 0.43309647782494154 -0.10434109156952055 0.22372473050851924 -0.08823880212687486 -2.3574573548653914 0.19208684749693491 0.020149933064775416 -1.4802701491739234 0.3130997877071815 -0.13959772771308007 -0.18093583424049633 1.2648078360652546 1.0208938147240338 -0.3008672722351533 0.2696430958159531 0.08489470537011817 -0.030840498746565616 -0.5131653709480846 -1.062617605818162 0.044015859753934884 1.3802007954302036 0.3210448095914983 -0.11531054503659859 1.025016300359111 0.355797285425017 0.7333168785874438 -2.265554631297632 1.3435078881887637 0.0025309437668345827 0.993861782314063 -2.707924473494498 -1.3172501989223215 0.5411462665992152 0.2638052672472846 0.17632314753135514 0.9025560853165759 0.7701024674066014 2.4317370512698306 1.17564038146728 -0.10248527373475855 2.141246790191802 0.2581420480160731 0.16864828816972077 -0.22082742453704707 1.3286305037804595 0.8875538833164298 0.5325882543855174 0.6892240072290562 -1.0424342167310168 1.054451837814747 0.1876264042900058 0.4143649115262342 -0.4445831312906991 0.44763232115124935 -0.3526496019214154 -1.2272278619792976 0.4659323723764217 -1.3019969936728961 -1.985173547143241 0.8189553110730552 0.6139127003879317 -2.565994422062752 1.2008545421509305 -1.0499047528015817 -0.3737384111219379 1.2647536959769607 -0.12454583026908839 -0.316200166664532 -0.34203225874030907 -0.7519249339958939 0.24323433835377278 1.3391532963810178 0.9059331405756853 -1.1193788395861177 -0.0808691736578591 1.0713478914802372 0.5340698276079265 0.738852224336828 1.8058208629236416 0.2372121222298157 3.2532999893183767 -1.0446626831254382 0.3313564042580935 -1.1512925130470046 -1.5006659721903413 -0.08804878154570797 -0.2882895165670094 -0.692272474696323 0.6189446203266286 -0.41611996939698903 -1.2083588133853584 -0.8328322001637892 -0.6935480033189768 -0.5874788810637237 -0.13800897368824444 -0.15400245718645889 0.5685241899900713 1.1604448775484077 -0.4390240714590137 1.8043944938902687 1.315799881185721 -1.2095761589477303 -1.2872255761906892 0.4656517370089593 -0.3703036073159379 -0.8970644777781972 0.2574954641148955 -0.8203956567636882 0.10907293386569235 0.8178348188233261 -0.3586607277239946 -0.5407260709573904 0.8520966249299777 1.529187089596863 -0.13805588214334483 -1.6002532237000056 -0.08252389109186557 0.8623656897865348 -1.1276856625571932 -1.3615520702251338 0.3717304113831077 -0.11515477813426407 -0.463757195942179 -1.234578746082671 -0.18808209937364587 0.5235582475849844 0.32788779480050734 -0.652248366391846 2.5167273329624864 0.6491608868899904 0.475576430330671 0.4212507852566581 0.3219793636251651 -0.032345367704908194 0.8991005722894176 0.30158238287709194 0.36569213527842276 0.1135983268647807 0.48813323348915505 0.8108321899995649 1.3226658010049877 0.6070578920698412 0.9350003744215456 1.138499818051817 1.242924725237966 -1.4426553713458525 -1.183902910935488 0.3533004064313093 0.0354724303301077 1.0310648234233604 -0.6789348449039109 -0.6185752531156086 -0.8034688603363588 -0.3119789680545042 0.372516734751539 -0.42672337051063963 0.6041010389493521 -1.2943650741296877 -0.6436239118510785 1.2737984766563297 -0.1295479118146007 2.0012511880180255 0.5316827908156477 -0.3359396495531045 -0.5121361552080846 0.7466001432403174 3.1995552005116488 0.045245703089906594 0.29527018080906686 -0.07402214471531063 0.9322190201643319 0.14970236314935084 0.6485965165045149 0.2854134977760544 1.080901182363334 1.5475696300332222 0.92357644414899 -0.5289673589065207 0.07668702781339064 -1.628939683935448 -2.362518104328961 0.6701111057584045 0.018638103642507932 1.23891788978497 -1.0425429424596364 1.5763859739057628 1.0418371323122317 -0.41078974099373167 -1.2407702990351814 -0.5012823450426435 2.4157359024822562 0.1970637690109916 1.0517263095322396 1.2018880489711732 -0.018604895028437454 -0.5176063721735428 0.784739801831193 -0.762134019432743 0.7331613574152249 0.30579329280095446 -1.0086024856856253 -0.2397669320316036 -0.36193819177698 0.7431316321376656 -1.5711159454773729 0.6317780608843654 0.06834016804402801 0.5021383374383285 0.6639668208635322 0.37430431245209167 -1.004698460161582 0.7650490313403405 0.4879328662232596 2.2046487440142797 0.4554535156830332 0.8550101757562045 -0.7404301368803136 -0.13093240134299616 0.07056569243970111 0.14370778643908447 0.16163865935963265 -0.13453464853743272 0.004177895605351753 1.1337476768461066 0.3939829966498152 1.207256178309711 0.07749132058375774 -0.8831725187970085 1.0884391940741405 -0.20118608714179959 -0.01065034278317967 1.105659778027135 0.8266010740799292 0.7122560542971067 0.759851364720051 -0.11541941028051755 -0.20438343395209907 -0.5252298687873667 -1.6501421512783172 -0.12203120409556137 0.9601590315003576 0.02027287115957958 -0.590603007535278 0.2956625786235568 1.1210929917446317 0.3141429333953659 -0.99891977174419 1.8405225185709224 -1.0840130188829482 0.038680871058197265 -0.5377041212702782 -0.7160457114511073 0.8766967779492693 0.008962867490366788 0.5027021073426674 1.1785721719250657 0.9338772446268204 -0.40369485235176406 0.06471874964557618 0.9470791705313291 -0.5362591031633883 -1.708251414110897 -0.36536325278891146 0.049379514226061266 2.330349682840787 1.699308123863723 -0.488858165710487 -0.5007123852112957 0.7387596864958895 1.6668169060131002 -1.627690356080277 0.4882486890899236 -0.05483858300444727 0.6346919471410721 -0.25266459815759773 -1.7450664938639249 0.4902590372687106 -0.85118451888765 -0.03899734317793294 -2.490603162768466 -1.0822885070110004 0.9008305521558786 0.42473559184062437 0.557912471060806 0.3080850745426218 0.4190975900962787 1.1522856004053195 0.9001815827357811 -0.0872402483462245 1.7131272572486367 1.0052077646749358 0.7393065748008996 -1.329406153080802 -1.5447380964111275 -1.0807859448962258 1.3264224108583582 -0.6026181443353358 -0.24056618240653813 0.7551600347980273 -2.0715126280127993 -0.06922354763745851 -0.3982470463827137 -0.036967301153751596 -0.820645865276793 -1.6273221798813884 0.3793569596345762 -2.3026878994252944 0.5363129369463259 1.5509604609913656 -0.051547450184403 0.6842166698682025 -0.9877504798796342 -0.6907773944117651 0.41738618146229783 1.8827096195113848 1.195568018531728 -0.24101853150851968 1.226604862110482 1.7314129454504223 -1.1789017363088206 0.22145518173959322 0.13704931369813173 -0.06275999475364227 0.31266369633069996 1.2842296367721266 -0.280151858962986 0.2821967453287495 0.4806401368772492 0.2107000788374392 -0.4406369870337673 -0.2774387569149811 -1.4834783251874142 -0.8970382782453669 -1.0864728606362453 -0.5296370687074003 1.699082780630461 2.209785206631694 0.010940271229868157 1.454695399068439 0.6798482981966733 0.179168568431788 -0.36352496823889446 0.6785777700327666 -0.4982540914553398 1.7927256495580752 -1.390088549958584 -0.14511470794368556 0.3239054524995766 0.023522572085473814 1.848809074909129 -0.6439396158424119 0.2549410059373271 -0.9393244149423271 -1.4617807115773254 -0.3482783114579972 -0.4978012151839321 1.3160426408100254 -1.7705445986520436 -1.240862374803681 -0.24907579522798345 -0.35889367587538673 0.5642499176751613 -0.00985109862459447 1.4971404805240034 0.30818814476873657 0.4096579985127298 -0.6301369971422578 2.039578546336043 -2.2708237827865436 1.017323218868981 -0.5713508557900165 0.782092086452351 -0.2847586681072888 0.15443049622215999 2.1871543559345965 0.19212269075464072 0.1185104005348279 -0.8180889084543566 -0.7962939151860592 0.26972985721227877 -0.8391074752685616 0.2650630226795046 1.9036551871694287 0.148441299834259 -0.9586114397480276 -1.7784837789867542 1.4929857739025365 0.799212268615197 0.039715233725897615 -0.3664737965472331 1.52841224905665 0.39649004200242044 0.4519694136467553 0.297646721569951 0.07939845647959196 -0.3950796253441818 -1.0266662683764394 -0.5824922454449345 0.3355922991083481 0.632922674976618 -1.3103765602136122 0.8363103502603318 -1.4523814246369127 -0.4092709886586909 0.11047510214381406 -0.5554873491427841 -0.06404906521674616 -0.9478875847857823 -1.5490826346912498 -0.13032103112768303 1.1871864826723846 -0.5273576534596291 1.2927760894916307 -0.3954447672204944 -0.31553133401726 -0.7846719317333976 0.2400260589633212 0.5919652721536613 -0.7117700417628521 -0.4518969832207342 0.22152754666250837 -0.051909554600441256 -0.5074719468843558 0.2620335612079661 -0.48609585082383344 1.7623211865947435 0.7526888291182416 -0.757215898143536 1.478656849255606 -0.4583712014335642 -0.06347204094512054 0.132365972863944 0.04773148967768436 1.679279985605264 0.5772239896537708 -0.28625649704266215 -0.9154340701070994 -1.0810862324470627 1.5473948341262718 -1.0979345577103146 0.7470092447322842 0.6876668817207734 -0.60150377958645 -0.5603063249165353 -0.7629833153979819 0.29872528224183403 -0.5937615852326693 0.7644572572781713 -0.02279590592960798 2.087627141501646 -0.18102872483729276 -0.4268250942057097 0.4632780060820771 1.7412841321196564 1.0124338765498375 -0.8452093873551902 0.48721597103803105 -1.3750728853401615 0.4979901987592944 0.32277957175275535 -0.8429198724346103 -0.1872868177251072 -0.1381329232539819 1.3890735046328178 0.07813538516132112 1.2487261717352074 0.31335836696144564 -1.039507674405232 -1.0754181436977754 0.7530379699699733 0.7920596848508097 0.07054467197445444 0.11521909848471108 -1.040989552562185 1.1710417462816978 -0.554300681395183 0.6717813214276663 1.6104745245741705 -1.5648070636571023 0.04744155548631098 0.03550811758917752 -0.9959174449056165 -0.07243966542833662 0.21213417088171732 -1.1189595681943734 -0.883383789715944 0.3288085555664408 -1.9193252501504117 -1.880366100298162 2.393130480654287 0.4330717194871764
-0.1325982247485136 -2.073821053656396 -0.28137377123737567 -0.20969992063496493 0.33216720122927784 -0.3436271618891232 0.4152332829394318 0.05998978285139742 -1.6275769994924862 0.6198040889977973 0.3548705712402234 1.220872066011489 0.21413399895169583 -0.3510574720834442 0.9811624692126323 0.3815023260776231 0.7923258702335584 -1.8433308859447997 0.6608216674456557 -0.9287177553271441 -0.7377876240527764 1.4236911927757314 -1.9670287662863883 -0.6065841304310026 -1.7389334284140283 1.4901204285585845 -0.6515842890411425 0.7892458197350605 -0.17115766405823796 1.5015043175884002 -0.3730856193402015 0.25371620409097995 0.6047796702202727 -1.2109762918461386 0.7526474651310495 0.01735043647098384 -2.018712567951626 0.07523482296767726 -0.05081479796662591 -0.07955327005487335 -0.5079636101618945 2.3975287019584335 -2.338405400624623 -1.070460058719086 0.7166250347446032 1.5769750477098063 -1.8585782241540534 -0.5346663462157498 -0.41105494121225183 -1.3875476764716101 0.9713943628204453 -0.7463909078630517 -2.0324347064740356 -1.307677429627797 -1.7101388260881623 0.8577358233698087 0.004406260599931567 0.1608530690232759 -0.3360532253399395 -1.679201603774603 0.33166570430981945 0.4855969702695856 0.6036752570669062 -0.02846567726147699 0.11385798269085443 0.7311176107664213 0.18161045133472736 -0.431437911693542 -1.3944120619136078 0.3474529293367537 -0.8074223984107621 0.015457477640247031 1.7029766440357894 -0.6363184254178638 -0.7129115022920754 -0.6519857137772923 0.0905217162095045 -0.24227144261567812 -1.7588361325184578 -0.058614164669103186 -0.4231417363531349 0.8224660934317423 0.14786081220104866 -1.5616476385506524 -1.5073826030264081 0.6766661618610957 -0.12624728560250717 0.6257990588651925 1.5449058846332777 0.3512966887140468 0.6857927841795001 1.2492896931696678 -1.5004552233413275 -0.7943092919155852 -0.4537729705850229 -0.2946218621357192 0.947747704300274 0.8802111863082362 0.3712138698026583 -0.5435697269911711 0.92251343704788 0.548935785781254 0.5731299386410882 1.6494483341676545 0.5566661814068603 1.1871850339840908 -0.582726916427503 1.0226892426732552 0.8161340111907518 0.3265782645430247 -0.8692420077593443 0.11605719073699074 0.059145422494744276 -0.82586241487589 -0.3427515652991224 -0.9960028333833717 0.27537372305179525 1.054209314241709 -0.5682399483305192 0.2051288379321347 0.07438657637734715 1.5449183870290164 -0.37667576508701683 -0.11889066175083614 -0.5388028448958285 0.9323110303137829 0.42244903213755547 0.5432188339650036 -0.29953536295684263 0.08526550541099305 -1.0011296861686612 -2.5584786717871757 -0.9925701514997325 1.3453797990648602 -0.16364689913147573 -0.274755758060955 -0.9896272378983714 0.3895804905438808 -0.9258200338342594 -2.6876284056707815 -0.19763182611236801 0.8368403527093933 0.055747361179656944 -0.8496429696962376 -0.2797835385869163 -0.4413276707175864 -0.35517100254886697 0.36994168783069503 -1.0117622961646153 2.549453774363087 0.7710825204600164 -1.3900561495000452 -1.8507201747498896 -1.8522410556178721 0.19433142242038867 1.8022831987117898 -0.839795952882584 -1.4683058057893312 0.10523896260378052 1.0365628791683092 -0.1603621547739019 1.2024533463259761 -0.5492080861029106 1.1884810105190378 1.0695805541752097 0.32289524852165846 -2.123488775264157 -0.8209508215288452 0.8461538603311214 -0.4272410514434389 0.09877514533707216 -0.11281801527345442 1.686701108550075 0.21247305438915623 0.7163127553754849 -0.6688084121366268 0.4866418527011366 -1.4200847638749485 -0.3168831202862508 -0.4528035373125477 1.0748993786906234 0.17554807546841872 -1.0873386919731325 1.4920060512792257 -0.2289866868048618 -0.9210578384975018 -1.1918823226427278 -1.4985042914697089 -0.9356828222173268 -0.7838941097669465 -0.9508915400367145 -2.0891529161119293 0.597602582373292 0.0908341399551427 -1.1393945460550823 -0.09589465190607495 -2.000103429966794 -0.811740116635071 0.45058587158432717 1.4232903407869215 0.3565366601332185 -1.366659693712277 1.0248637975742219 -1.062924824268802 -1.8271228960058221 0.4318934501971591 0.36683837316733553 0.11932567731836903 0.7617006773817845 0.30468389110140537 1.4323960548355603 2.044471251375595 1.1307066520570104 0.9164488700756684 0.587301785773381 1.8077577560182665 1.9911892061935343 0.5568655012734165 -1.2147210845378216 -1.2511696553586125 0.24425622696261864 1.5574781929994501 0.33045751034671833 -0.9410306377725626 0.29523578349138796 -0.11972982123632765 -1.7778572490523195 -0.26922325429477284 -1.0393242572525077 1.46093080296239 0.8927298484886041 -0.5445013532681566 -0.3452696006858925 1.0626490914494802 -0.16716898860620397 1.0203014590829267 -1.2029772588291974 0.1704742943528774 1.9375077370801164 0.9617269736504449 0.24832697683663577 -0.744106356924929 -0.2699833385773481 1.582861752883652 1.4729470064411574 -0.3681720117146053 1.0312641662973856 0.10689956618722841 -1.1930590965224748 -1.105840136325434 0.14282163298566372 1.2348726394214369 0.21141838844526778 -0.9741787258768394 -0.2628005709091468 1.9786653506801775 -1.205597106543869 0.21733468018178936 -1.3254019760231663 -0.17666852213936832 -0.5068608637254238 0.7243987384611509 -0.8726900516314181 1.213229369733066 1.4436135849518634 0.712602428559859 -0.9708179944536303 -1.4324631939164858 0.8220071736058051 -0.1444889868052552 1.3618517536240606 -0.4964415954778732 1.8894974124536783 1.9458788478659281 -1.335370162570049 0.3934778113097853 1.2651865721792612 -0.5571361682498809 -0.17677301423345126 1.1529488228554983 0.5683169051820011 -1.522663883205325 0.9719311771040909 -0.28446589426586966 -0.5220703135975627 -1.5497585083909988 -0.7511562814603904 1.9898239339211912 0.7524910992006184 -0.31288271425950526 -0.5456841618189566 2.1924637260726003 -0.6098662737571617 0.6901623257943763 0.8357859932287094 0.7287597542612662 0.543252529726132 0.44043244441750223 1.8022728772446142 -0.6082475024522034 -0.3958635781451519 -1.801397874922644 -1.3603803495280795 0.12305110556381883 1.777640143644423 0.8711410342251702 0.05765639338342178 1.7906650828521653 -1.2746287114935098 1.152748030644958 0.7584046842707418 1.1832419241945376 2.0837748378663306 0.9646766668930914 -0.049917582302296516 0.38285743234937647 -1.1295571853549147 -0.4729345180898679 0.35342650925378966 0.36026795047679405 0.17636237436926885 0.399943686713005 1.3687262658490407 -1.5003733894286955 0.4198907971867682 1.291936465736367 -0.05122134973642748 -0.12557213473972514 1.3774518459670677 0.957715401966764 0.38542508627896405 0.6736996219656752 -0.4181541503495272 0.6541601639985988 -0.26649341074060945 0.29814588702632777 0.2556939807877963 2.0446007311124905 -0.15836732056148126 0.06799873904299544 0.5109327210201885 1.8188529106978293 1.8888864264778975 -0.6237400874190189 1.875263392555311 1.452454535011627 0.9200369662276588 0.7220710051408031 0.2902895648329165 -1.7241703674747257 -1.9051931864693863 0.10295615375329534 -0.004119829838747044 -0.7693074396032894 -1.467135226677907 -0.9300853427317248 -0.49881578354926315 0.3986737214479833 -0.6878642592814882 0.11873110275019838 0.22657260779378507 -0.2853056319741708 -0.29523436726886854 -0.4354597945010046 2.418396715438229 -2.161066840189557 2.1647852335583777 0.2239375571890453 -0.46188772355104973 0.8511377787823984 0.6726245553626027 0.4827682515523263 -0.2414086107648024 0.8086808353449236 -0.9225944433715504 -0.6240048676735113 -1.1410410295476179 0.46991098550096766 -1.2359277143458076 -0.2238719183951236 -0.06943288075534548 -0.489556439376612 -0.7161385754182313 -0.6227398999352908 0.3398134653429712 0.6073115494379552 -1.4601771594089907 1.7639089194240831 -1.0060442876976925 0.16607699375517765 0.5145225412418729 0.2963091912255321 -2.45210411433757 -1.6864338888234505 -0.27517577842450913 1.0105035675074743 -0.27905628473896765 -0.8736361154191321 1.1896063544884978 -0.03171106912692385 0.9338243630178611 -1.9221261048904317 -0.23352672355395163 1.0771717266377259 -1.807016975834001 -0.2488561516556232 -1.571860514947484 -0.40928858833755166 0.0928446708410877 0.3853125959797454 1.416609093169991 1.2132607439908043 0.6106377843508043 0.1336574049424445 -1.133959225602911 0.0938638897020786 -0.6150109751012135 1.1076080887551372 0.15370227960437585 0.24229639192391267 0.8639259994263504 -0.25328979639758803 0.23660110321626615 0.8511031525132025 -0.024440303230342745 0.6477901097997503 -0.43469959330301616 -0.3424193334960667 -1.2064103415261247 0.11852153074878041 0.5396823562970863 0.33711808738662596 -1.1652910318474572 -1.8652926754600099 -1.1881053874545044 0.13839988703646622 -0.269916072978444 0.4293771715638003 -0.6426791976064179 -0.8282627979063424 -0.12933283985371685 1.4842767110309363 -0.5683627453828546 2.181495057947037 1.14118545027726 0.5536196958759289 0.7178809669133962 0.7355878240160925 0.14285195991252883 -1.3538761472117606 -2.019918860282851 0.3614037089534083 0.5328984564470186 -0.08321969364958758 0.1099620092524612 0.5225503708732814 0.12679767854242957 0.6293721993977106 0.18035998591214433 0.5755159045660025 -1.556416027422129 -0.05327380372891609 -1.5798373456346897 0.2499634000638229 0.9714745405386024 -0.037356194636827406 0.013780461011903503 -1.974275641844161 -0.6632094754297772 -0.10759441658499382 -1.0741320004806891 -0.9214989733001017 1.0002198680912493 1.1394207305279003 -0.29037340457774147 0.6438066138322242 0.04146242926028703 0.9393643141338849 1.0292426715955683 0.09272594377819322 0.6365280555631844 0.04857157581654553 0.987374744408385 1.1532064838248126 0.27207606730433875 -0.11524253224251017 0.14211132698505669 0.15398091326532706 -0.7063422181654567 0.11086512470040123 -0.06523334402933771 -0.13109114527438312 0.4456462963856915 0.5277792523120687 -0.014713056615081913 0.45534024768396114 0.07343123896745199 0.2560607544844901 -1.4086509451084037 -0.48113114880347785 -0.8492630211166525 -0.8060889829748255 -1.6535033728621293 -1.243043160776333 0.9175370674805341 -0.15164328138854635 -0.7941997530478964 -1.4489382308684269 0.6025047770726178 0.6122712895866407 -0.6511603426859243 0.5744169020638187 -0.8193725667959773 -0.7932564752612213 -0.09561268646047705 -1.0479110194442716 0.4339353021048112 -1.047178535692762 -0.042706339063064536 0.2914099471178095 0.06533295772233541 -0.6824108056928987 -1.3513988969731399 -0.44124465729514767 0.20512711336776468 -1.312590477523027 0.6403902268915042 -1.1896327106281992 0.20685759316463262 -0.5904269381454149 0.09534127008393169 0.4694913431603745 1.3272843826782281 1.3877378694053393 -0.5684375108197804 0.980749113825239 -0.7361577572040088 -0.8488123962061239 2.679153852683579 -0.6725445405176163 1.1794373244333993 -1.518774899988785 1.5952657869958091 -0.9158713468099277 1.5043691821434417 -2.905127907248227 0.0396180374687659 -0.445263455608031 -0.5384518047984553 2.1260309795967234 2.6495793295117704 -2.028245218465978 -2.425202199824897 2.3616922234131783 -0.8391421367402614 0.5459143477052382 -1.2424675420912672 -0.010010666453718682 -0.11284374750950495 1.7888193100274754 0.7425363313395607 -0.9700013733050803 1.1334943203130856 0.3806174701930099 1.4166222845236376 -2.4890043186110855 -0.8044897609931809 -0.8462694007695801 0.023539568194287 -1.7936928975014417 0.6419381246984572 0.12298774070529622 1.2549944387631646 -0.11065703417006778 -0.0206399648173361 -1.3722316200668292 -0.7135013643521789 -0.03384563657674314 -1.2271132936842353 -1.9487988984741125 0.6386575587645443 2.0848057636650386 -0.8176083698711024 0.7694966373867569 0.9351248910981653 1.2965262119107075 2.4275001678352988 -0.12749486868548907 -1.2980366637925669 -1.4672086629883891 -2.4644595714536663 -0.7144010327263799 -0.17207634757032647 -2.1479196694971248 0.1031779299081551 -0.7741038275150927 -0.14393202387197337 -0.221693934341663 0.06928810104394405 0.21210838750583677 -1.6469507564070303 -0.3649848147746082 -1.6361007378916765 0.9296839544273365 -1.110320788811907 -1.4714362336519018 -0.056267520561955976 0.03186348370019663 1.0585755024647863 -3.503639328172175 -0.40690145621169477 -1.5464863571538734 -1.4829570634798028 1.5007954210972816 -0.3148600750743478 0.9102884013327537 0.23903252506861894 0.003996978080216455 0.05998562262092604 -0.11338950345593275 -0.8274482608638043 0.29544453792646963 2.173788222626186 -0.7911511241988891 -0.24638164349573888 -0.5051898304548764 -0.42312262608874057 -0.352635178339669 0.09364721447538371 0.8590457283083159 1.4217656764005624 -0.95208174938365 -0.2675730827698401 -0.33718224159709737 -0.5072998648397054 -0.45428532077201916 -0.9534218129096574 -0.8840009059941215 -0.2656630332778172 -0.4272099336978245 0.6957590481523234 -0.02260949586501876 1.4300368255176568 -0.37652741932024714 -0.47731170718462845 -1.6525457835826531 -2.40377715957604 -0.1673600793014435 -2.8485895604318294 0.32836888689348165 0.5556441846473392 0.10386996610644865 0.7684042066584337 -0.28482049226967 -1.3419566172067525 2.2837634007522483 -0.3980253917320454 0.6249779643256452 0.01904724905377562 0.9455317504521735 0.8643441400516082 0.13257120385028873 -1.2609977981644258 0.5100847931970888 -1.3979033814285609 -0.06511847284651893 0.7603198816559948 0.5514139349444876 0.2512023020976667 0.4397123812985884 0.15895049147204718 0.957470224800852 -1.8456073180243848 -1.1937298276019994 0.23176799664419886 1.795821699273266 1.4139468303539713 1.5756721037088615 -0.44021667360090777 -0.23670203175209137 -1.5467537609109014 0.34543703476322574 0.4975139945623764 1.1399811212364175 1.144737387068211 -0.26411555941470083 -1.1973540661468258 1.6630877691453076 0.7940154099770089 -2.5580460857266836 -1.3185809329350162 -0.18421139669839254 1.362907846097648 -1.4705548559528108 0.5725471450724261 0.03337339546700112 0.5636921732939785 1.2921336062061763 -1.2991276867172787 -0.9252939333247664 -0.9603512971806399 0.27761311531132393 -0.1900902661401869 -0.4455958083915549 0.531053599652618 0.038995017295875116 -1.4315483608518904 0.8170614369269462 -0.9448073545440593 1.1732503598237443 0.5602744479360561 0.6334380501734427 0.6286774494759356 0.7857696575170388 1.3989793637646932 -1.5391190841957467 0.8283684405065715 0.22233105642835413 1.321173642764226 -0.02391013103948417 0.7375346588602597 0.6776222187177 1.0339772354063417 1.09716637389762 -2.2679097943243423 -0.017015848715794337 0.746521468622699 0.9004645497192273 0.42838150113566825 0.2439177011767939 0.22931156200137648 -1.0251956076834672 -1.0586246375276154 -0.6095072495552317 -0.23886956551223362 -1.3563719703464412 1.3385058199186097 0.09405016998799832 0.8675891904965937 -0.7126364177268882 -0.9865928272771207 -0.4410777891914638 -0.3094695609734217 -0.7608397828444526 -0.4581808199151809 0.23492777887744662 0.5981070770189129 0.31568480793599957 -0.810491488709607 0.5746043820081342 0.7805075862917596 -0.6163243922784559 0.516042922662229 -0.34677260172482754 -0.6192172277231871 -2.29391532694434 -1.953882047126746 -1.0211193162578929 1.227018130161021 -0.41635449293886556 0.4848425410584697 -1.5764342180220003 0.6802397182780641 0.13223680679878652 -0.8673130969304867 0.4529746794294728 0.20720063959976812 -0.48344911941046803 -0.13625138222332278 2.5878455443279416 0.7463509117445587 1.3244471389989338 0.4653201621504373 -0.15252797200841603 1.2539371095012382 -0.7026629628095072 0.4064980209183843 -0.06400169432094845 0.7339782374687904 0.11677259894557843 -0.43540287937169964 -2.80866917463406 2.678867258144868 1.5457632466173543
0.5963440870497032 0.7810086281909618 0.5207865302746516 -0.46684883975878455 0.7726681522872907 -0.5354781810813827 -1.260790985713234 0.7125474155182278 -0.8995400526226095 0.8550203526070633 -0.37564401015681653 -0.07310607663245258 0.07686613776975725 1.1382967362229293 1.985693514673852 0.8547251389059366 -1.551330810070062 0.7797051484119394 -0.9060917726341519 0.005250593891661089 -0.6451945669001242 -0.9654670703791572 -0.18729603821644353 -0.05039717378004916 -0.211351513529701 0.13849162168125265 -1.9724579508529065 -2.132633241177214 0.6661075233592739 -0.7818139897642273 -0.40645359728147445 -0.07245548518573428 1.9097694809500987 1.6364515239000104 0.481193790642983 1.8376334175991786 -0.15224208578482648 0.6472994156958571 1.1911919038131475 0.24794255913464888 -1.599939930437373 -0.17654159508388514 0.5984873420065653 2.2665024803565594 0.5376064628118468 0.047331053401042766 -0.8777456748374438 0.2475749049046363 -0.4094355056428642 1.6694020924700677 -1.896136194564826 -0.4147682914888886 0.02612018310811677 1.4784571881363466 -0.8682500421829492 0.7113937990264149 0.05799229182060417 2.518288335409892 -0.1566309519357714 1.4408340714585854 -0.5428955146599772 -0.8188804557692613 0.1699871378291288 -0.5755976936586968 0.3932155453144228 0.1295991771568893 2.8751218318766822 -0.8960923618351948 0.5537210102413856 1.1117045212962748 -0.1100389563689274 -1.2616002634399406 1.6117431449730137 -0.9993990082659049 -1.3097351178603538 0.6763122174583943 0.3336272804695365 -0.495811190387295 -1.5290854554393223 0.8166086717380039 0.7114982291980559 0.02917419420425268 0.8912381903787912 0.5504218389214485 -1.3438827235550639 -0.9396037037962804 0.8123233041467003 0.2370659313382507 -0.29361303480633755 -1.187085275225153 -0.3444599369788638 0.09750926870674276 -0.3291542879593548 -0.9363991108793321 -0.9061245330308417 -0.5426044219385049 2.0224404690461784 0.46798199075533425 -0.5976651075428916 1.34331537691719 -0.9795165443996479 0.6790080026383586 0.5791073234305155 -0.7909131605887885 -0.201999427178473 -0.09550629629186065 0.375672714987707 -0.31405797386830686 0.375873833380326 0.42685887248602555 0.32358709366305427 -0.7539146124975947 -0.5316467195301614 -0.8269969946280893 -0.09099317216385318 0.3092663374515721 2.427727524998217 0.23232215387039112 -0.25093522266356133 -0.418602742303381 -0.18271818741460713 -1.2594699705938988 -0.7168136152397209 2.169275447305114 0.6169639862668348 0.008912241706276566 -1.0305749138644122 0.7650537699640837 -0.6568920530360752 1.9226579243371096 1.2948759608640017 0.8820182035611348 -2.431565796732172 -2.7129397825650985 -1.4462141695166701 -1.7508619145391218 1.2604593516467937 0.24188837877366276 -1.783275809289492 0.07247951669437537 -0.5818076935321731 2.226165435298467 2.13697593959542 0.18947788629704385 0.44045468976457075 1.3112891150969006 -0.06916643701917852 1.4856585516258538 1.8159414640615616 0.4610933541455036 0.5477386163574923 1.6808534351107995 -0.2026682596335363 0.16002170552474038 0.8822639671827277 0.5542185232115261 -0.3523312259567297 1.0329446531590512 -0.9127590329112022 0.6781036104091269 0.6994798838722138 1.507176733550541 1.1890661248137313 0.9671467949920891 0.2542911384194511 0.031236359267468886 0.19658930460957638 0.4289104352846713 -1.5912746651328402 1.1563800898814753 0.8620415424519341 -0.4577723316228568 -0.6469569821756364 -0.2534603071818039 2.0709932766804244 1.9913428413326033 0.32510010050078764 0.9336066143731079 1.2233241731336435 -0.05764336098299481 0.9468275944964877 0.7305757325934193 0.9627476474814795 -0.6882793773300603 0.7539242720474365 -1.4122008960106363 -1.6385288569615064 -1.9446531305657953 -0.5251757415359165 0.14287965381383932 -1.1695819537374101 -0.34500480577546605 0.2427705782805432 0.29836292409445214 -0.23024406870925004 1.5182107592235239 0.912344939765359 -1.9120111313917618 -0.13589857750482245 -0.2534388430242042 0.7303915971773126 -1.79684329537916 -0.33926107875965955 -1.36313173024584 0.48861170909642143 -0.1450666711517274 0.4620926289901626 -1.2663787048299795 0.6449347231903204 -1.7410526821608199 -0.4788968425898473 -1.4776326523636722 -0.695514893419223 0.13997184191134654 1.1943451153145488 -1.6551146366839964 2.3136456658088456 0.7261010700462623 0.2335096537526067 -1.3452767631850677 -0.5031526286996432 1.9844081515183791 -0.23131025100617586 0.08689679824511089 0.03613192760308238 1.3449635963700983 0.3578404382831412 -1.0485590735081667 -0.23601345168632454 -0.17947166120209254 1.1435062171890187 -0.48112952015906535 -0.9091204509754381 2.696531051561503 0.6366447204446142 -0.040019943814463624 0.5407646195698569 1.4823665502838828 -0.014759778009779005 1.7428491824087646 0.6952572915380432 -0.18958467238122714 0.8816350952092208 -0.925777163651653 1.8078240209428966 -0.9799245168422602 0.5776033288985775 0.9253299373999038 -0.41873884661437566 -0.13575080494931566 -0.6184832979434336 -0.9752380978010902 -0.4118481807748913 -1.228362585744342 -0.7265564967704501 0.39525247794646495 -0.13473074169539911 0.8851212492366577 0.6886276876879414 -1.40943951594408 0.5203892532425701 0.5399424635689427 0.41413860490767673 -0.29328397631487874 0.4654795721482863 0.17053689872097313 -0.8276302145533279 0.5566976539147389 -0.8877526974525454 1.589842604917539 0.36163455564326946 -0.9670039536643336 1.8017262740435067 0.502968549523736 0.6459098454995351 0.9732587367900718 1.413139206425102 -0.733066893417355 0.07093532801739436 0.6103448111664812 1.3545988635011899 0.049493077278695716 1.1366530349511943 -1.5839582269248076 -0.560394129949989 -0.18322770931069282 1.6094045375829682 0.9808278181328903 -1.9899032413467175 -0.8900694766698152 1.350071430077211 0.6195379188602563 -0.08198906411202067 1.7274033266522004 0.5272908762747219 1.4291699043687554 0.34862084611880073 1.1400507630654069 -1.2873089549430605 -1.9083374493759786 -0.3895687998238848 -0.24249699108504172 -1.268504542741522 0.5041160028359628 -0.3081808661402097 1.2635357636028972 -1.953833227628109 -0.7398158041860668 -0.7961797568477483 -0.33177257875566063 -1.050116792441716 0.35637075256532724 -1.9951006936295537 0.655457987753612 0.20982168466892076 -0.7596742967307134 0.6636652051922431 -0.21635431563810356 0.7227693628833667 -0.620555567303126 0.2721719675951946 1.560898106495822 0.697412292133693 -1.0399957959301835 -0.2469222722178744 1.7338666264808553 0.9022367041794953 0.9809492055665436 -0.6304730668579557 0.2793758405605408 1.4727435412549745 -0.5016492494555339 2.31759104329357 0.1383990993880299 0.7993567535273446 -0.5087216156398129 -1.4661717172176112 0.19882681198619812 -0.07718137769080285 -0.07166079675019353 -0.3530324962037235 -0.1476801621380104 -0.16969606605727447 -0.9204348061762745 -0.9393008583062563 0.945452693949386 1.115953088338793 1.6078407534196213 -1.3275346226754232 0.1433120754693724 -0.5436552432755 1.0297593641824239 -0.638683633256832 -0.30685958004899877 -0.3782475447150477 2.099086670227733 -0.5806038274080383 -0.9714237962843718 0.6675009843431043 -0.2179747902122186 -1.0646759952694524 -1.0066175343066364 0.3018192631753929 -0.2797190300082793 -0.1246789375828251 -1.1559114899698277 1.3529157671205652 1.7634965094068025 -0.4743265625469021 0.20473424200048526 0.17601409206555604 0.635301424739969 1.8196219938261038 -0.14763802526159714 -0.5734440378264002 0.23021932593897668 -0.33686103998396216 0.6870970055239989 0.6774099372932834 0.5304557290627782 0.8494423740507752 0.23170257817594067 1.3559411951112577 0.6229576246837971 -0.8635932866049817 0.0905154011066876 0.5732814917877838 -0.1410525767106441 -0.9707266439399821 0.4928647761131604 1.1721898643962188 0.5001493410007286 0.17344766837375947 0.9873146176408235 0.2938588184904983 -0.5788342152610387 0.8527709134399593 -0.08919555457271454 1.629966310453547 0.8020283182594291 -0.4468680816371697 1.258699475852851 0.5166648841459757 -0.08186586820759321 0.4716121576727954 -1.3824539143603733 1.0419930460670346 0.1637450371411909 1.9896526666988197 -0.6144107118615256 -0.4969111879757277 -0.1612153298254081 -0.1294773046885529 2.6092037901077205 -1.6340257046491846 0.11383740767686215 -0.5936937227007033 -0.7765316090794594 0.6008647445297751 -1.6270222424821472 -0.6501529304254356 -0.592215825686583 -1.4843061451234871 0.7320675291211831 -0.8036314649553651 -0.5008953405851365 -0.09080916865120885 -0.3399464200794675 -0.6712967637468443 -1.0139636571392356 0.41515919733527074 -0.10016697775955646 0.36041913452190905 0.8364500734513753 1.2582906406071233 1.4517827077625172 0.3661426556435566 0.6605034052896342 -1.7443094455278225 0.4664786201263019 0.556566033744238 -0.9049896388166133 -0.2596671997669874 -0.9294362467775601 0.23760740677159983 0.5848867877591868 -0.8958413396495241 0.5823009426094566 -0.1692921465255072 1.869165299958274 -0.5293671417430623 0.352335811641478 -0.3299654169454698 0.7935839626733185 2.2343133899468035 2.022426530728752 0.9218602856876008 -0.3247461645685858 1.108282977920049 1.4312867534259854 0.7427311456087283 -0.9784812810528878 1.2377968809876863 -0.24712192178247658 -0.5628751824050255 -0.0657825247854905 0.34700937461019776 0.5105847654864888 0.1291158414687203 0.4410299630585409 0.5579417515218027 0.4289681354265797 -0.25827466981320796 -1.510941624017122 0.7692666217508387 -0.6552882039354156 0.05576076223205917 -0.5708995118868142 1.2668886667132793 0.5344535759217105 0.9436069425631658 0.04148805478175976 0.8253676346635501 1.3894923364034466 -0.5111948388679329 0.4037580606821994 -1.4752075014458164 1.2072961843507304 -0.4649558758201613 -0.542132916338167 -0.6990880233467985 1.281850185625776 0.026978306749792163 0.7498662336976986 0.846804408234526 0.5102789111733766 -2.461909939419885 -0.4569740041744717 1.565723082011442 2.161484297534003 -1.7719641662508394 0.5351395655950997 0.8525410687454968 1.0315251565719525 0.07992028407581643 -0.618442917044311 -1.122171082539287 -1.8101342421434947 0.09106954798725335 0.6282893057047402 0.5349220739688237 -1.1853234864975204 0.83131016437323 1.1403712682388871 1.0913453433211437 -0.9704904302106393 -0.8130616055699735 -0.27124236786111583 0.7448853733101221 -0.6885918989056846 -0.6010860848715489 0.6692463685303329 0.09690264466872966 0.04985472757863309 -0.07417133533959791 0.47540456047063995 2.0726135651552666 -0.003034641107465754 -1.147951228835806 0.052824493682911276 -0.6050198515010728 -2.2444777010720203 -0.1793479264349934 1.2714022101233782 0.5114307825703357 1.42145340896604 0.19167342196960532 -0.11814213013821062 0.26161621105031135 1.213612481569495 0.8698038855084291 0.38107419645306956 -0.9255413543017634 -0.1551814987812714 -0.0217723287876262 0.3224472029743875 -0.7606889382896646 1.3546315103214608 -0.5582418688014175 0.011009517226457072 0.9188764233828427 -0.07198726036353531 -0.09101715681332491 -0.5113582245029104 1.4392891407039377 -0.8336412936677235 -0.4958497781932896 -0.7779573470057395 -0.6830088140490957 0.6357733416829499 -0.6635924753669941 1.1114629665448643 1.2164555868805413 0.2065201816421533 -0.27101358521779245 -1.4560067470659641 -1.0536887636296448 0.48870647280917284 1.567099403128419 0.3868385965068224 0.5299412953107193 0.6946106187824277 -0.011067696870196084 0.46936838578304246 -0.06387560189232729 1.3957080022874753 -0.038551643666492635 -0.19724378926459465 0.34516216206989386 1.8861081783617246 -1.2065853266505955 0.32379695311725265 -0.4517038475553518 1.0981351410369848 0.3477472652174114 -1.6459186440308446 0.8304773056673508 -0.8754616596000631 0.017915899602037117 0.2602623580878764 -0.6978962907026334 -1.9178664400124794 1.0847567147152264 1.003415334582847 1.0697376413242001 0.10098022480206506 0.4384311374908092 -0.22341562353701983 -0.6844886977340435 0.04150532437879427 -0.19671893119535125 -0.761404240050098 -0.7153456072320136 -0.5791821226276197 1.2918247878166207 -1.4202157218256055 -0.6054886276589861 -1.008869518094653 3.3306156983762616 -0.8971491992341429 -0.4941139476057533 0.39412703921090636 0.7678308876368259 0.8774717124518573 -0.4806632009366614 -0.140941820217215 0.7308582639415666 -0.7744221919520718 0.8450964176381602 -1.6763475413409754 0.11834045439831599 0.682784341861832 -0.3779688050484031 -0.4984018404659263 -0.5421673151393337 -0.3870694663368661 2.9130240363894635 0.4720781684922627 0.46492113891918435 0.008964640299132033 0.47517487140017417 -0.3670104354869254 0.7274007117392104 -0.803959594679734 0.8064948781002519 -0.5176750928647821 0.13344822412914775 -0.1754715024499638 1.009562055776032 -1.3681245486129423 -1.2741206199096897 -0.2005330760957287 1.005921946342395 0.4121869943999937 -0.8601764211604879 -1.1533875151575854 0.4535657952827133 -0.7052772986472433 0.8174108784058227 0.09375946621865483 -0.9134677580415866 1.4605241812360084 -0.1932921877891772 -0.8202620002660296 2.5060651200647386 -0.5651897206345062 -1.2020899964001504 -0.007303086180836048 1.6050920730183453 0.2704501189692203 0.02920210534767406 0.560390744467636 1.6739681483575624 -0.44365376886598645 -0.7248032984345836 -1.0926926974178217 -0.6646735819752565 -1.5388030398606427 -0.11274536801975275 0.11662964812668393 0.3256603726304663 -0.06389408297514251 -1.1952834197669988 -1.298118830298731 -0.9445912894011512 -0.03711721875136722 -0.5578020276098855 -0.39577371330431327 -1.792713580274859 -2.1509010163702458 -0.5703002173597443 1.2805516596615858 0.06475748447669227 -0.23390946516246855 -0.6695726857637907 0.6075933198521442 1.3084332151324185 -0.827915230381312 0.16821573428000794 0.4955656678225333 -1.717842759006654 -0.9975780803854389 0.2877575913095618 -0.6251876377702582 1.0548218002928627 -0.44760796787370893 0.4933625464388623 -0.196710647901384 2.8885419119961115 0.6880952335658281 0.7780857258707246 -0.05472259726214886 -1.2101013897432338 -0.08932990006302921 -0.49280089759533274 0.093364956297178 0.8473827951049193 -0.7722742967083209 -0.4124087506970747 1.0055908649581964 1.0094370131361223 0.7578374145593096 0.3782470402690957 -0.24289842191641978 -0.9133498468676079 -1.146312822958946 -0.7012479199967837 0.5431794923003936 0.9398670735866032 -1.339418036856872 -1.7122448520661262 0.7584865772585285 -0.2832000293438053 -0.53288509937303 1.0298573282528507 1.5373840112619472 0.047132436896316535 0.46916568687677557 2.22600093371075 -0.1484473362859764 0.021209410710082807 -0.7638427354252152 1.7861088054758305 -1.365358529881603 1.388021868030691 0.40093070032561134 -0.27026624734783694 -1.4379080155855057 -0.4742738839319282 0.783416593153045 -1.0956175907433445 0.8991000035006327 -0.629654702295391 -0.995195771305564 0.7884258145559473 1.3150793858101688 0.6174228436170268 -1.559685787587483 1.2934522398656607 -0.18159496250291227 0.9984240377799125 -0.05520411303757239 -1.1310134196357244 -0.03111647895414557 -0.26047045493299037 -0.12077792986577433 -1.6133379309021716 0.13936377287759089 2.236305966769503 -1.7054675598047668 -0.6245609597166488 -0.7492067482738141 -0.3406886151372173 -1.8846130982193532 -0.6521967987396193 0.3293762133108989 0.40491471896601877 0.8900190805265035 -0.8907280786152323 -0.02567982543710341 1.0471464137121214 -0.9330792119315608 1.165864426936133 -0.9852485277527919 0.16981851765235054 -0.2645527892043615 0.8758773888872772 -0.9969105049067443 1.120435326388909 -0.1619975936076279 1.7300637832645005 -0.49709165300853464 1.2561141458183356 -1.1335094522390772
